/* Generated by Edge Impulse
 *
 * Permission is hereby granted, free of charge, to any person obtaining a copy
 * of this software and associated documentation files (the "Software"), to deal
 * in the Software without restriction, including without limitation the rights
 * to use, copy, modify, merge, publish, distribute, sublicense, and/or sell
 * copies of the Software, and to permit persons to whom the Software is
 * furnished to do so, subject to the following conditions:
 *
 * The above copyright notice and this permission notice shall be included in
 * all copies or substantial portions of the Software.
 *
 * THE SOFTWARE IS PROVIDED "AS IS", WITHOUT WARRANTY OF ANY KIND, EXPRESS OR
 * IMPLIED, INCLUDING BUT NOT LIMITED TO THE WARRANTIES OF MERCHANTABILITY,
 * FITNESS FOR A PARTICULAR PURPOSE AND NONINFRINGEMENT. IN NO EVENT SHALL THE
 * AUTHORS OR COPYRIGHT HOLDERS BE LIABLE FOR ANY CLAIM, DAMAGES OR OTHER
 * LIABILITY, WHETHER IN AN ACTION OF CONTRACT, TORT OR OTHERWISE, ARISING FROM,
 * OUT OF OR IN CONNECTION WITH THE SOFTWARE OR THE USE OR OTHER DEALINGS IN THE
 * SOFTWARE.
 */
// Generated on: 20.02.2023 13:32:20

#include <stdio.h>
#include <stdlib.h>
#include "edge-impulse-sdk/tensorflow/lite/c/builtin_op_data.h"
#include "edge-impulse-sdk/tensorflow/lite/c/common.h"
#include "edge-impulse-sdk/tensorflow/lite/micro/micro_mutable_op_resolver.h"
#include "edge-impulse-sdk/porting/ei_classifier_porting.h"

#if EI_CLASSIFIER_PRINT_STATE
#if defined(__cplusplus) && EI_C_LINKAGE == 1
extern "C" {
    extern void ei_printf(const char *format, ...);
}
#else
extern void ei_printf(const char *format, ...);
#endif
#endif

#if defined __GNUC__
#define ALIGN(X) __attribute__((aligned(X)))
#elif defined _MSC_VER
#define ALIGN(X) __declspec(align(X))
#elif defined __TASKING__
#define ALIGN(X) __align(X)
#endif

#ifndef EI_MAX_SCRATCH_BUFFER_COUNT
#define EI_MAX_SCRATCH_BUFFER_COUNT 36
#endif // EI_MAX_SCRATCH_BUFFER_COUNT

#ifndef EI_MAX_OVERFLOW_BUFFER_COUNT
#define EI_MAX_OVERFLOW_BUFFER_COUNT 10
#endif // EI_MAX_OVERFLOW_BUFFER_COUNT

using namespace tflite;
using namespace tflite::ops;
using namespace tflite::ops::micro;

namespace {

constexpr int kTensorArenaSize = 278784;

#if defined(EI_CLASSIFIER_ALLOCATION_STATIC)
uint8_t tensor_arena[kTensorArenaSize] ALIGN(16);
#elif defined(EI_CLASSIFIER_ALLOCATION_STATIC_HIMAX)
#pragma Bss(".tensor_arena")
uint8_t tensor_arena[kTensorArenaSize] ALIGN(16);
#pragma Bss()
#elif defined(EI_CLASSIFIER_ALLOCATION_STATIC_HIMAX_GNU)
uint8_t tensor_arena[kTensorArenaSize] ALIGN(16) __attribute__((section(".tensor_arena")));
#else
#define EI_CLASSIFIER_ALLOCATION_HEAP 1
uint8_t* tensor_arena = NULL;
#endif

static uint8_t* tensor_boundary;
static uint8_t* current_location;

template <int SZ, class T> struct TfArray {
  int sz; T elem[SZ];
};
enum used_operators_e {
  OP_CONV_2D, OP_DEPTHWISE_CONV_2D, OP_ADD, OP_PAD, OP_FULLY_CONNECTED, OP_RESHAPE, OP_SOFTMAX,  OP_LAST
};
struct TensorInfo_t { // subset of TfLiteTensor used for initialization from constant memory
  TfLiteAllocationType allocation_type;
  TfLiteType type;
  void* data;
  TfLiteIntArray* dims;
  size_t bytes;
  TfLiteQuantization quantization;
};
struct NodeInfo_t { // subset of TfLiteNode used for initialization from constant memory
  struct TfLiteIntArray* inputs;
  struct TfLiteIntArray* outputs;
  void* builtin_data;
  used_operators_e used_op_index;
};

TfLiteContext ctx{};
TfLiteTensor tflTensors[182];
TfLiteEvalTensor tflEvalTensors[182];
TfLiteRegistration registrations[OP_LAST];
TfLiteNode tflNodes[71];

const TfArray<4, int> tensor_dimension0 = { 4, { 1,96,96,3 } };
const TfArray<1, float> quant0_scale = { 1, { 0.0039215688593685627, } };
const TfArray<1, int> quant0_zero = { 1, { -128 } };
const TfLiteAffineQuantization quant0 = { (TfLiteFloatArray*)&quant0_scale, (TfLiteIntArray*)&quant0_zero, 0 };
const ALIGN(16) int32_t tensor_data1[4*2] = { 
  0, 0, 
  0, 1, 
  0, 1, 
  0, 0, 
};
const TfArray<2, int> tensor_dimension1 = { 2, { 4,2 } };
const ALIGN(8) int32_t tensor_data2[2] = { -1, 576, };
const TfArray<1, int> tensor_dimension2 = { 1, { 2 } };
const ALIGN(16) int8_t tensor_data3[8*3*3*3] = { 
  /* [0][0][][] */ 10,-3,13, 9,-23,31, 13,-24,21, 
  /* [0][1][][] */ 41,30,28, 67,19,59, 25,-33,39, 
  /* [0][2][][] */ -20,-92,-12, -29,-127,0, -7,-55,18, 
  /* [1][0][][] */ 30,75,24, 5,9,-2, -32,-69,-27, 
  /* [1][1][][] */ 52,122,39, 1,0,-3, -56,-127,-40, 
  /* [1][2][][] */ 28,45,11, 3,-1,0, -33,-53,-3, 
  /* [2][0][][] */ 43,92,10, 53,127,12, 16,43,-1, 
  /* [2][1][][] */ -48,-84,-29, -82,-94,-39, -31,-6,-21, 
  /* [2][2][][] */ 0,10,6, 4,16,-1, 0,11,-7, 
  /* [3][0][][] */ 45,-30,-16, 78,-35,-39, 31,-16,-12, 
  /* [3][1][][] */ 80,-55,-37, 127,-54,-74, 59,-28,-29, 
  /* [3][2][][] */ 19,-21,-4, 41,-28,-16, 15,-11,-2, 
  /* [4][0][][] */ -12,-23,-4, 27,45,10, -15,-28,-4, 
  /* [4][1][][] */ -28,-59,-9, 64,127,19, -34,-61,-7, 
  /* [4][2][][] */ -9,-13,3, 21,25,-3, -11,-13,-2, 
  /* [5][0][][] */ -33,-59,-30, -54,-85,-48, -44,-30,-22, 
  /* [5][1][][] */ -58,-104,-43, -84,-127,-59, -50,-39,-28, 
  /* [5][2][][] */ -1,4,-10, -4,-2,-6, -4,9,1, 
  /* [6][0][][] */ -99,-5,35, 2,20,-13, 65,17,-20, 
  /* [6][1][][] */ -127,-34,44, 14,21,-27, 108,16,-32, 
  /* [6][2][][] */ -51,-13,17, 15,-7,-2, 34,-13,30, 
  /* [7][0][][] */ -6,16,-2, -16,22,-7, -7,21,-8, 
  /* [7][1][][] */ 17,84,-6, 22,127,-23, -3,60,-27, 
  /* [7][2][][] */ -28,-51,-20, -43,-52,-33, -20,4,-19, 
};
const TfArray<4, int> tensor_dimension3 = { 4, { 8,3,3,3 } };
const TfArray<8, float> quant3_scale = { 8, { 0.0078651523217558861, 0.0060345884412527084, 0.0081840232014656067, 0.003361451905220747, 0.011738097295165062, 0.00085901812417432666, 0.001140301232226193, 0.0097139617428183556, } };
const TfArray<8, int> quant3_zero = { 8, { 0,0,0,0,0,0,0,0 } };
const TfLiteAffineQuantization quant3 = { (TfLiteFloatArray*)&quant3_scale, (TfLiteIntArray*)&quant3_zero, 0 };
const ALIGN(16) int32_t tensor_data4[8] = { 104004, 4102, 117509, 52049, 40680, 777776, 46316, 81184, };
const TfArray<1, int> tensor_dimension4 = { 1, { 8 } };
const TfArray<8, float> quant4_scale = { 8, { 3.0843737476971e-05, 2.3665053959120996e-05, 3.2094209018396214e-05, 1.3182165275793523e-05, 4.6031756937736645e-05, 3.3686987990222406e-06, 4.471769898373168e-06, 3.8093970943009481e-05, } };
const TfArray<8, int> quant4_zero = { 8, { 0,0,0,0,0,0,0,0 } };
const TfLiteAffineQuantization quant4 = { (TfLiteFloatArray*)&quant4_scale, (TfLiteIntArray*)&quant4_zero, 0 };
const ALIGN(16) int8_t tensor_data5[1*3*3*8] = { 
  /* [0][0][][] */ -22,-5,3,-1,-2,27,-3,-3, 12,-1,3,-7,10,127,11,127, 3,0,4,-8,-1,16,2,8, 
  /* [0][1][][] */ 6,-127,-8,3,-15,-6,-111,-5, -127,100,-77,127,-127,-8,127,-40, 11,-1,-3,-65,-6,1,50,-23, 
  /* [0][2][][] */ 18,-2,1,-4,-1,-22,3,-3, 58,-1,127,-22,13,-113,0,10, 9,0,-6,-8,-2,-20,-5,0, 
};
const TfArray<4, int> tensor_dimension5 = { 4, { 1,3,3,8 } };
const TfArray<8, float> quant5_scale = { 8, { 0.0050017773173749447, 0.017559986561536789, 0.007001157384365797, 0.025951523333787918, 0.0069746943190693855, 0.011525789275765419, 0.023211987689137459, 0.0035902836825698614, } };
const TfArray<8, int> quant5_zero = { 8, { 0,0,0,0,0,0,0,0 } };
const TfLiteAffineQuantization quant5 = { (TfLiteFloatArray*)&quant5_scale, (TfLiteIntArray*)&quant5_zero, 3 };
const ALIGN(16) int32_t tensor_data6[8] = { 7695, 259, 1872, 1360, 12446, 329, 864, -416, };
const TfArray<1, int> tensor_dimension6 = { 1, { 8 } };
const TfArray<8, float> quant6_scale = { 8, { 0.00011768888361984864, 0.00041317616705782712, 0.00016473312280140817, 0.00061062409076839685, 0.00016411046090070158, 0.00027119505102746189, 0.00054616440320387483, 8.4477265772875398e-05, } };
const TfArray<8, int> quant6_zero = { 8, { 0,0,0,0,0,0,0,0 } };
const TfLiteAffineQuantization quant6 = { (TfLiteFloatArray*)&quant6_scale, (TfLiteIntArray*)&quant6_zero, 0 };
const ALIGN(16) int8_t tensor_data7[8*1*1*8] = { 
  /* [0][0][][] */ -11,-13,-21,13,-9,-127,9,38, 
  /* [1][0][][] */ -61,24,-127,120,8,61,-19,40, 
  /* [2][0][][] */ 9,-10,24,-4,-9,-127,12,26, 
  /* [3][0][][] */ 24,51,52,127,16,-41,-43,-13, 
  /* [4][0][][] */ 16,56,21,-18,-127,-7,25,-6, 
  /* [5][0][][] */ 61,-24,127,-103,18,-58,-7,-45, 
  /* [6][0][][] */ 30,127,47,-37,38,-13,-67,-20, 
  /* [7][0][][] */ -22,-27,-42,-16,-13,-127,21,42, 
};
const TfArray<4, int> tensor_dimension7 = { 4, { 8,1,1,8 } };
const TfArray<8, float> quant7_scale = { 8, { 0.0097122667357325554, 0.011015301570296288, 0.01477909367531538, 0.0086579397320747375, 0.010820191353559494, 0.0054101212881505489, 0.014060229063034058, 0.0084566576406359673, } };
const TfArray<8, int> quant7_zero = { 8, { 0,0,0,0,0,0,0,0 } };
const TfLiteAffineQuantization quant7 = { (TfLiteFloatArray*)&quant7_scale, (TfLiteIntArray*)&quant7_zero, 0 };
const ALIGN(16) int32_t tensor_data8[8] = { 1876, 1134, -703, -10857, 46, -1592, -987, 5182, };
const TfArray<1, int> tensor_dimension8 = { 1, { 8 } };
const TfArray<8, float> quant8_scale = { 8, { 0.00018588290549814701, 0.0002108216576743871, 0.0002828568103723228, 0.00016570415755268186, 0.00020708744705189019, 0.00010354421829106286, 0.0002690984692890197, 0.00016185182903427631, } };
const TfArray<8, int> quant8_zero = { 8, { 0,0,0,0,0,0,0,0 } };
const TfLiteAffineQuantization quant8 = { (TfLiteFloatArray*)&quant8_scale, (TfLiteIntArray*)&quant8_zero, 0 };
const ALIGN(16) int8_t tensor_data9[48*1*1*8] = { 
  /* [0][0][][] */ 11,52,5,-19,93,-24,127,-3, 
  /* [1][0][][] */ 127,84,74,15,-11,-42,-3,121, 
  /* [2][0][][] */ -64,11,-2,127,9,-17,-36,59, 
  /* [3][0][][] */ 49,-33,-127,0,0,-43,24,119, 
  /* [4][0][][] */ -121,81,-127,-16,16,27,-39,-44, 
  /* [5][0][][] */ 127,-17,-5,-47,-1,-32,9,-127, 
  /* [6][0][][] */ 6,-7,-4,1,-127,-26,56,4, 
  /* [7][0][][] */ -4,-60,-4,1,-25,2,-127,-2, 
  /* [8][0][][] */ -12,25,34,-7,127,15,-60,-19, 
  /* [9][0][][] */ 127,-37,27,0,-6,-31,40,110, 
  /* [10][0][][] */ 127,6,-5,-37,-2,10,0,-124, 
  /* [11][0][][] */ -51,1,-2,127,-2,-44,-35,34, 
  /* [12][0][][] */ -127,-3,-77,-18,17,113,-58,-126, 
  /* [13][0][][] */ 115,6,127,13,-7,21,24,47, 
  /* [14][0][][] */ -127,-6,14,16,0,-14,7,125, 
  /* [15][0][][] */ -127,12,1,126,0,-6,-24,125, 
  /* [16][0][][] */ 66,-72,127,76,-13,-118,35,67, 
  /* [17][0][][] */ 16,-56,-80,127,1,24,-7,115, 
  /* [18][0][][] */ 18,-32,-120,44,-18,0,36,127, 
  /* [19][0][][] */ 24,16,-11,127,-8,3,-71,-45, 
  /* [20][0][][] */ 18,54,112,-115,9,-72,10,-127, 
  /* [21][0][][] */ 4,-3,-6,0,-127,-13,56,2, 
  /* [22][0][][] */ 1,56,-2,-10,3,127,-11,1, 
  /* [23][0][][] */ 120,26,-8,96,-3,0,-44,-127, 
  /* [24][0][][] */ -127,25,-91,-45,22,-42,-48,-61, 
  /* [25][0][][] */ -47,-6,-59,-43,7,-127,11,-44, 
  /* [26][0][][] */ -102,-22,-127,9,11,4,-19,-34, 
  /* [27][0][][] */ 99,4,127,18,-8,47,16,42, 
  /* [28][0][][] */ 6,-63,-22,37,26,-127,2,14, 
  /* [29][0][][] */ -6,-9,26,-127,-15,-7,20,-2, 
  /* [30][0][][] */ -43,5,127,-5,-1,6,-8,-118, 
  /* [31][0][][] */ -1,10,4,0,127,25,-51,-1, 
  /* [32][0][][] */ -127,-18,-110,-9,1,-30,-22,-63, 
  /* [33][0][][] */ 12,-56,5,-34,37,-127,14,-19, 
  /* [34][0][][] */ -52,-127,-126,71,2,-55,-12,-18, 
  /* [35][0][][] */ 56,6,-114,0,0,-1,6,127, 
  /* [36][0][][] */ 64,34,80,28,2,127,10,30, 
  /* [37][0][][] */ -10,18,-3,127,7,-21,-15,12, 
  /* [38][0][][] */ 1,23,8,0,127,25,-39,-1, 
  /* [39][0][][] */ -8,11,-9,18,-33,127,-100,-4, 
  /* [40][0][][] */ 127,-19,120,19,-22,29,16,60, 
  /* [41][0][][] */ 117,-3,127,18,-8,9,33,47, 
  /* [42][0][][] */ 61,-61,-9,-34,27,127,19,-27, 
  /* [43][0][][] */ -9,-66,-8,0,-45,-17,-127,3, 
  /* [44][0][][] */ -24,-127,37,96,18,41,13,-120, 
  /* [45][0][][] */ 123,13,127,-2,-7,29,26,45, 
  /* [46][0][][] */ -85,19,4,127,2,3,-39,71, 
  /* [47][0][][] */ -5,48,-10,-3,0,127,-16,1, 
};
const TfArray<4, int> tensor_dimension9 = { 4, { 48,1,1,8 } };
const TfArray<48, float> quant9_scale = { 48, { 0.0039483439177274704, 0.0025951061397790909, 0.00062561483355239034, 0.0025982141960412264, 0.0028445872012525797, 0.0070150452665984631, 0.0078274616971611977, 0.0069531314074993134, 0.0054910616017878056, 0.0030736194457858801, 0.016040699556469917, 0.0028807122725993395, 0.00070789980236440897, 0.0034955132286995649, 0.0064204111695289612, 0.00055224262177944183, 0.0026786597445607185, 0.0034131738357245922, 0.0033540623262524605, 0.0022268739994615316, 0.0014680748572573066, 0.011093520559370518, 0.0043461541645228863, 0.0089886598289012909, 0.0020276298746466637, 0.0009837406687438488, 0.0040035825222730637, 0.0029935776256024837, 0.0095826815813779831, 0.0047939633950591087, 0.011156473308801651, 0.011144902557134628, 0.0011691448744386435, 0.0029531361069530249, 0.0032491644378751516, 0.0078666293993592262, 0.0042644389905035496, 0.0044746743515133858, 0.0096254916861653328, 0.004248838871717453, 0.0031315633095800877, 0.0024970525410026312, 0.0030464059673249722, 0.0044973935000598431, 0.001474456861615181, 0.0026908854488283396, 0.00045763346133753657, 0.0063750259578227997, } };
const TfArray<48, int> quant9_zero = { 48, { 0,0,0,0,0,0,0,0,0,0,0,0,0,0,0,0,0,0,0,0,0,0,0,0,0,0,0,0,0,0,0,0,0,0,0,0,0,0,0,0,0,0,0,0,0,0,0,0 } };
const TfLiteAffineQuantization quant9 = { (TfLiteFloatArray*)&quant9_scale, (TfLiteIntArray*)&quant9_zero, 0 };
const ALIGN(16) int32_t tensor_data10[48] = { -1350, -10474, 20392, 5549, 13859, 4059, 3981, 648, -1420, -9399, 762, 5625, 26433, -15304, 108, 7497, -9083, -177, 3325, 9194, 11378, 3890, 1122, 409, 14932, 28681, 13018, -14679, 2757, -1187, -17, -4398, 24932, 10206, 14229, -2022, -13785, 101, -4841, -478, -16228, -12465, -1784, 3282, 9621, -15030, 9371, -2118, };
const TfArray<1, int> tensor_dimension10 = { 1, { 48 } };
const TfArray<48, float> quant10_scale = { 48, { 0.00028815621044486761, 0.00018939483561553061, 4.5658332965103909e-05, 0.00018962167087011039, 0.0002076023374684155, 0.00051196879940107465, 0.00057126017054542899, 0.00050745019689202309, 0.00040074612479656935, 0.00022431746765505522, 0.0011706749210134149, 0.00021023880981374532, 5.1663613703567535e-05, 0.00025510793784633279, 0.00046857146662659943, 4.0303515561390668e-05, 0.00019549269927665591, 0.00024909866624511778, 0.0002447846345603466, 0.00016252067871391773, 0.00010714236123021692, 0.0008096221718005836, 0.00031718899845145643, 0.00065600621746852994, 0.0001479795464547351, 7.1794907853472978e-05, 0.00029218761483207345, 0.00021847589232493192, 0.00069935881765559316, 0.00034987082472071052, 0.0008142165606841445, 0.00081337208393961191, 8.5325991676654667e-05, 0.00021552441467065364, 0.00023712901747785509, 0.00057411869056522846, 0.00031122530344873667, 0.00032656861003488302, 0.00070248317206278443, 0.0003100867907050997, 0.00022854629787616432, 0.00018223872757516801, 0.00022233139316085726, 0.0003282266843598336, 0.00010760812438093126, 0.00019638494995888323, 3.3398791856598109e-05, 0.00046525918878614902, } };
const TfArray<48, int> quant10_zero = { 48, { 0,0,0,0,0,0,0,0,0,0,0,0,0,0,0,0,0,0,0,0,0,0,0,0,0,0,0,0,0,0,0,0,0,0,0,0,0,0,0,0,0,0,0,0,0,0,0,0 } };
const TfLiteAffineQuantization quant10 = { (TfLiteFloatArray*)&quant10_scale, (TfLiteIntArray*)&quant10_zero, 0 };
const ALIGN(16) int8_t tensor_data11[1*3*3*48] = { 
  /* [0][0][][] */ 110,-36,-71,-94,23,-101,65,-54,69,24,92,49,-96,60,55,-119,72,-93,3,-41,-127,-57,37,109,-7,70,-6,66,-127,-32,88,-80,-45,-62,47,82,-127,49,112,79,-46,-127,-62,46,-67,-35,7,-82, 83,-56,77,127,88,36,121,-123,-80,98,57,69,1,56,59,119,74,-91,-105,-59,89,-95,52,1,113,127,-33,83,6,52,80,-50,49,112,127,127,-93,47,72,-27,86,24,-37,105,127,109,-4,-10, 22,-22,3,-41,37,54,21,-89,-12,46,-86,35,91,-12,-67,-1,28,-31,97,-20,38,2,-84,-89,22,7,-6,31,33,69,36,8,-4,-45,30,35,-20,11,15,-58,-57,105,14,82,-59,-78,-2,76, 
  /* [0][1][][] */ 127,71,-127,16,-82,-127,70,-64,96,-72,127,-95,90,90,127,126,-45,111,-13,-85,116,-80,49,127,-4,-8,-34,19,-57,79,65,-127,-127,-72,-21,27,-14,101,127,127,-53,-80,-127,54,-3,-27,-127,-127, 126,127,114,-21,-127,12,127,-127,-127,-127,85,-127,37,127,101,-127,-38,127,127,-127,-67,-127,74,-36,72,6,-127,71,10,127,127,-104,119,127,-30,5,-21,127,96,-42,127,-7,-56,127,-10,127,123,44, 23,55,2,9,-32,78,27,-85,-10,-94,-88,-69,-127,-3,-77,1,34,36,-112,-55,-50,-13,-127,-104,-31,1,-70,23,43,81,30,6,6,-61,-11,-4,-1,33,19,-77,-64,92,-15,101,8,-85,3,95, 
  /* [0][2][][] */ 40,-42,-29,-1,38,-25,4,-19,70,20,31,45,5,47,-13,-14,-127,-29,-5,-17,17,-37,11,43,84,-13,-15,-95,22,43,-13,-77,-25,-42,-71,-4,78,23,33,72,-105,-54,-116,35,2,-5,93,-64, 13,-65,4,0,35,3,29,-50,-92,64,0,59,-21,60,-7,13,-96,-24,-12,-52,-28,-71,30,-11,127,-10,-45,-127,19,70,0,-53,29,80,-61,13,85,45,17,-25,-65,0,-56,85,-4,-9,-98,60, -4,-27,23,6,5,20,5,-20,-10,49,-35,31,17,-16,-22,1,21,-4,19,-37,11,4,-41,-53,-12,-6,-13,-41,17,60,-6,13,-3,-38,-41,1,70,19,2,-42,-106,52,-28,48,6,4,5,13, 
};
const TfArray<4, int> tensor_dimension11 = { 4, { 1,3,3,48 } };
const TfArray<48, float> quant11_scale = { 48, { 0.0024207134265452623, 0.0085427397862076759, 0.073027573525905609, 0.024460377171635628, 0.0052392319776117802, 0.0075489459559321404, 0.0030861934646964073, 0.01206553727388382, 0.0081428857520222664, 0.018557384610176086, 0.0029911447782069445, 0.022357139736413956, 0.035422977060079575, 0.0079272883012890816, 0.0053349807858467102, 0.23160015046596527, 0.0075625833123922348, 0.0090846624225378036, 0.012929661199450493, 0.0043745678849518299, 0.024868477135896683, 0.0033915271051228046, 0.012867871671915054, 0.0051990910433232784, 0.0068937214091420174, 0.031083438545465469, 0.005221332423388958, 0.015607453882694244, 0.040438245981931686, 0.020772237330675125, 0.0034220067318528891, 0.0052022146992385387, 0.047214556485414505, 0.027421770617365837, 0.0079706711694598198, 0.0064574088901281357, 0.006938424427062273, 0.0029078684747219086, 0.0045862253755331039, 0.0094199255108833313, 0.016977684572339058, 0.018599795177578926, 0.0030987062491476536, 0.0076131317764520645, 0.028559254482388496, 0.027056150138378143, 0.14694534242153168, 0.022414188832044601, } };
const TfArray<48, int> quant11_zero = { 48, { 0,0,0,0,0,0,0,0,0,0,0,0,0,0,0,0,0,0,0,0,0,0,0,0,0,0,0,0,0,0,0,0,0,0,0,0,0,0,0,0,0,0,0,0,0,0,0,0 } };
const TfLiteAffineQuantization quant11 = { (TfLiteFloatArray*)&quant11_scale, (TfLiteIntArray*)&quant11_zero, 3 };
const ALIGN(16) int32_t tensor_data12[48] = { 4138, -236, 104, 91, 8406, 3089, 908, 5668, 4288, -157, -1370, 29, 52, -490, -268, 2, 10588, -76, 50, 33435, 38, 16834, -133, -51, -14, -8018, 8208, -256, 431, -358, 3778, 8022, 43, 106, 800, 453, 7136, -697, 1040, -542, 336, -100, 19245, -9183, -2, 9, 0, -180, };
const TfArray<1, int> tensor_dimension12 = { 1, { 48 } };
const TfArray<48, float> quant12_scale = { 48, { 5.6957964261528105e-05, 0.00020100564870517701, 0.0017182958545163274, 0.00057553831720724702, 0.00012327605509199202, 0.00017762226343620569, 7.2616319812368602e-05, 0.0002838950022123754, 0.00019159731164108962, 0.00043664436088874936, 7.0379879616666585e-05, 0.00052605033852159977, 0.00083348184125497937, 0.00018652444123290479, 0.00012552896805573255, 0.0054494151845574379, 0.00017794313316699117, 0.00021375676442403346, 0.00030422731651924551, 0.0001029310078592971, 0.000585140660405159, 7.9800636740401387e-05, 0.00030277346377260983, 0.00012233156303409487, 0.00016220520774368197, 0.00073137501021847129, 0.0001228548790095374, 0.00036723422817885876, 0.00095148815307766199, 0.00048875855281949043, 8.0517806054558605e-05, 0.00012240505020599812, 0.0011109308106824756, 0.00064521812601014972, 0.00018754521443042904, 0.00015193903527688235, 0.00016325704928021878, 6.8420435127336532e-05, 0.00010791118984343484, 0.00022164531401358545, 0.00039947492768988013, 0.00043764224392361939, 7.291073416126892e-05, 0.00017913251940626651, 0.00067198247415944934, 0.0006366153247654438, 0.0034575376193970442, 0.00052739266538992524, } };
const TfArray<48, int> quant12_zero = { 48, { 0,0,0,0,0,0,0,0,0,0,0,0,0,0,0,0,0,0,0,0,0,0,0,0,0,0,0,0,0,0,0,0,0,0,0,0,0,0,0,0,0,0,0,0,0,0,0,0 } };
const TfLiteAffineQuantization quant12 = { (TfLiteFloatArray*)&quant12_scale, (TfLiteIntArray*)&quant12_zero, 0 };
const ALIGN(16) int8_t tensor_data13[8*1*1*48] = { 
  /* [0][0][][] */ -28,38,-28,0,-44,-25,-79,23,9,21,37,39,36,5,-43,11,-44,42,11,-63,30,40,-127,5,-8,11,-31,46,-6,-11,23,20,15,-24,36,18,0,108,-67,-17,-12,20,-27,29,5,6,20,-4, 
  /* [1][0][][] */ -74,-101,-58,5,87,-27,-127,61,-25,-39,-12,-77,-20,76,6,-10,114,-124,-9,-18,-61,4,5,-19,21,-6,-26,-53,22,-15,-116,-23,24,-56,-81,-100,44,8,-90,-2,2,39,9,79,-13,7,4,44, 
  /* [2][0][][] */ 7,-68,10,57,112,17,98,-8,-34,-28,-12,-48,3,-26,18,32,-32,-90,44,-60,6,-68,-57,11,-70,59,70,-96,-37,-5,-56,-47,18,5,-68,-48,-6,127,77,-35,-12,9,-25,-75,45,35,48,-25, 
  /* [3][0][][] */ 8,2,20,-15,33,25,22,-90,25,19,-12,9,3,-112,-17,2,-28,9,-18,-4,-6,51,-127,5,18,-96,34,29,46,-16,-31,56,1,9,-3,-33,-98,-45,8,-15,-7,-2,39,2,-16,3,1,-52, 
  /* [4][0][][] */ 36,-57,8,74,53,8,-29,-5,-37,-13,23,-34,75,36,-22,32,-46,-65,66,35,35,-52,127,24,-31,13,-56,-16,-10,16,-81,-43,84,-26,-44,-65,-45,-48,-23,0,-64,98,-1,-9,59,84,44,26, 
  /* [5][0][][] */ -63,-22,-35,53,-6,10,-1,-52,-59,-35,-3,-21,16,38,-71,15,127,-17,54,-76,28,-97,-7,-5,88,-112,-102,-11,55,-43,33,-76,13,-57,-35,26,-79,-19,18,-33,-45,27,94,46,42,18,27,-40, 
  /* [6][0][][] */ -33,6,-37,36,-25,77,-75,11,-21,-1,-127,9,49,37,121,21,22,9,44,-11,40,-15,-47,-15,11,0,-72,17,2,-51,7,-23,35,-43,7,8,-3,-5,-55,-22,-34,45,-23,29,30,31,34,-1, 
  /* [7][0][][] */ 30,-5,39,-18,2,8,12,-11,14,4,-8,-2,-11,-7,-1,-13,12,-4,-25,-19,-21,14,127,13,5,-14,0,9,6,-9,-22,14,-1,20,-1,-19,-10,14,6,27,4,-3,9,-1,-17,-2,-23,15, 
};
const TfArray<4, int> tensor_dimension13 = { 4, { 8,1,1,48 } };
const TfArray<8, float> quant13_scale = { 8, { 0.0065800314769148827, 0.005260856356471777, 0.0061266142874956131, 0.0061470456421375275, 0.0054823914542794228, 0.004735634196549654, 0.0050022187642753124, 0.013412981294095516, } };
const TfArray<8, int> quant13_zero = { 8, { 0,0,0,0,0,0,0,0 } };
const TfLiteAffineQuantization quant13 = { (TfLiteFloatArray*)&quant13_scale, (TfLiteIntArray*)&quant13_zero, 0 };
const ALIGN(16) int32_t tensor_data14[8] = { 3822, 2471, 2243, 10324, 5346, 5490, 2408, -2808, };
const TfArray<1, int> tensor_dimension14 = { 1, { 8 } };
const TfArray<8, float> quant14_scale = { 8, { 0.0001548242726130411, 0.00012378486280795187, 0.00014415563782677054, 0.00014463637489825487, 0.00012899744615424424, 0.000111426692456007, 0.00011769926641136408, 0.00031559958006255329, } };
const TfArray<8, int> quant14_zero = { 8, { 0,0,0,0,0,0,0,0 } };
const TfLiteAffineQuantization quant14 = { (TfLiteFloatArray*)&quant14_scale, (TfLiteIntArray*)&quant14_zero, 0 };
const ALIGN(16) int8_t tensor_data15[48*1*1*8] = { 
  /* [0][0][][] */ -127,-17,27,-112,-124,123,1,-62, 
  /* [1][0][][] */ 80,4,19,-24,5,60,-127,44, 
  /* [2][0][][] */ -46,49,-103,89,-53,127,19,53, 
  /* [3][0][][] */ 97,-26,-30,74,-2,-67,11,127, 
  /* [4][0][][] */ -80,-6,-5,13,-20,-34,127,3, 
  /* [5][0][][] */ 56,113,21,47,-127,-48,11,-32, 
  /* [6][0][][] */ -1,-68,35,127,13,-96,-19,37, 
  /* [7][0][][] */ 127,-3,102,1,-77,32,74,125, 
  /* [8][0][][] */ -37,-127,48,50,82,-32,-28,3, 
  /* [9][0][][] */ -79,-102,18,-26,-25,3,-51,127, 
  /* [10][0][][] */ -34,-127,30,102,62,115,7,-24, 
  /* [11][0][][] */ -127,-117,31,-71,59,56,-42,126, 
  /* [12][0][][] */ 81,-18,88,-77,24,-127,83,-1, 
  /* [13][0][][] */ 35,17,21,127,-12,18,35,-61, 
  /* [14][0][][] */ -43,-8,39,3,127,-18,-1,127, 
  /* [15][0][][] */ -84,127,47,80,64,105,-45,94, 
  /* [16][0][][] */ 1,-31,-63,-127,-60,60,19,56, 
  /* [17][0][][] */ 24,127,5,57,-25,-45,-5,17, 
  /* [18][0][][] */ 18,34,-15,-127,-46,-87,23,-17, 
  /* [19][0][][] */ 30,-63,-127,-100,-76,99,14,-3, 
  /* [20][0][][] */ 27,4,17,-3,127,23,32,-37, 
  /* [21][0][][] */ -127,-83,-68,-91,45,41,58,-18, 
  /* [22][0][][] */ -68,-44,79,127,46,-47,-51,127, 
  /* [23][0][][] */ 25,37,-46,127,115,29,36,96, 
  /* [24][0][][] */ 127,-1,-121,-22,-1,-23,46,-51, 
  /* [25][0][][] */ 5,-8,-45,-18,70,-25,-127,-60, 
  /* [26][0][][] */ 127,8,105,-34,-89,47,60,119, 
  /* [27][0][][] */ 18,-56,-39,127,38,-2,-24,-109, 
  /* [28][0][][] */ -61,127,82,68,62,-21,-26,3, 
  /* [29][0][][] */ 0,1,52,4,-72,2,127,66, 
  /* [30][0][][] */ -58,-75,52,-66,-77,127,62,43, 
  /* [31][0][][] */ 106,20,91,-23,-97,73,78,127, 
  /* [32][0][][] */ -113,-14,-32,37,-23,21,127,19, 
  /* [33][0][][] */ -117,127,59,80,29,27,-78,8, 
  /* [34][0][][] */ 111,6,24,-17,7,47,-127,18, 
  /* [35][0][][] */ 5,-5,22,30,-43,31,11,-127, 
  /* [36][0][][] */ 21,-4,-69,-112,48,-22,28,127, 
  /* [37][0][][] */ 53,-40,-40,-55,-23,33,59,-127, 
  /* [38][0][][] */ 30,127,21,107,-75,-90,-18,-22, 
  /* [39][0][][] */ 103,-4,111,-12,-91,35,127,118, 
  /* [40][0][][] */ -64,-77,127,105,-17,-25,-89,26, 
  /* [41][0][][] */ 29,-15,8,20,20,-64,-10,127, 
  /* [42][0][][] */ 55,-91,-82,-90,-57,74,40,-127, 
  /* [43][0][][] */ 100,-8,121,-34,-86,-17,113,127, 
  /* [44][0][][] */ -123,-89,-68,127,99,-24,-94,47, 
  /* [45][0][][] */ 127,-16,85,-28,-34,26,-5,74, 
  /* [46][0][][] */ 47,-117,2,78,127,-1,58,12, 
  /* [47][0][][] */ 74,127,-25,111,-38,-80,35,-79, 
};
const TfArray<4, int> tensor_dimension15 = { 4, { 48,1,1,8 } };
const TfArray<48, float> quant15_scale = { 48, { 0.0026530011091381311, 0.0052240677177906036, 0.0022198508959263563, 0.0017398018389940262, 0.014274177141487598, 0.0017419380601495504, 0.0057645919732749462, 0.0036120153963565826, 0.0033371453173458576, 0.0022006663493812084, 0.0023876109626144171, 0.0013778347056359053, 0.0029618723783642054, 0.0026595278177410364, 0.0021314702462404966, 0.0025721087586134672, 0.004363146610558033, 0.0034963525831699371, 0.0017623211024329066, 0.0054881353862583637, 0.0060098473913967609, 0.0017352829454466701, 0.0013532678131014109, 0.003879074938595295, 0.0022499801125377417, 0.0034170232247561216, 0.0042755864560604095, 0.0029307687655091286, 0.0032808405812829733, 0.0079724062234163284, 0.0016731001669541001, 0.0035975980572402477, 0.0054586068727076054, 0.0031468356028199196, 0.0097455959767103195, 0.0031305903103202581, 0.0024093287065625191, 0.0023541687987744808, 0.0027343328110873699, 0.0045018675737082958, 0.0040378998965024948, 0.0018630711128935218, 0.0022103700321167707, 0.003782323794439435, 0.002182273892685771, 0.0045771459117531776, 0.0043039550073444843, 0.0011080659460276365, } };
const TfArray<48, int> quant15_zero = { 48, { 0,0,0,0,0,0,0,0,0,0,0,0,0,0,0,0,0,0,0,0,0,0,0,0,0,0,0,0,0,0,0,0,0,0,0,0,0,0,0,0,0,0,0,0,0,0,0,0 } };
const TfLiteAffineQuantization quant15 = { (TfLiteFloatArray*)&quant15_scale, (TfLiteIntArray*)&quant15_zero, 0 };
const ALIGN(16) int32_t tensor_data16[48] = { 4418, 1283, 4365, 7991, 361, 5430, 1392, 2139, 2102, 4259, 3861, 6132, 3296, 1915, 3360, 62, 303, -2811, 7053, 2407, 1522, 6232, 8117, 606, 3477, 3540, 2081, -203, -1754, 1502, 7052, 2822, 1459, 1251, 807, -606, 989, 2236, 138, 1963, 1317, 6021, 2340, 743, 3255, 1441, -212, 11663, };
const TfArray<1, int> tensor_dimension16 = { 1, { 48 } };
const TfArray<48, float> quant16_scale = { 48, { 0.00020641759329009801, 0.00040646025445312262, 0.00017271620163228363, 0.00013536582991946489, 0.001110606943257153, 0.00013553204189520329, 0.00044851590064354241, 0.00028103400836698711, 0.00025964764063246548, 0.0001712235389277339, 0.00018576883303467184, 0.00010720286809373647, 0.00023044942645356059, 0.00020692541147582233, 0.00016583972319494933, 0.00020012374443467706, 0.00033947601332329214, 0.00027203481295146048, 0.0001371179532725364, 0.00042700613266788423, 0.00046759808901697397, 0.00013501424109563231, 0.0001052914303727448, 0.00030181265901774168, 0.00017506041331216693, 0.00026586258900351822, 0.00033266335958614945, 0.0002280293992953375, 0.00025526684476062655, 0.00062029558466747403, 0.00013017609308008105, 0.00027991225942969322, 0.00042470864718779922, 0.00024484054301865399, 0.00075825920794159174, 0.00024357657821383327, 0.00018745858687907457, 0.00018316684872843325, 0.00021274563914630562, 0.00035026922705583274, 0.0003141700872220099, 0.00014495683717541397, 0.00017197853594552726, 0.00029428489506244659, 0.00016979251813609153, 0.00035612628562375903, 0.00033487059408798814, 8.6213425674941391e-05, } };
const TfArray<48, int> quant16_zero = { 48, { 0,0,0,0,0,0,0,0,0,0,0,0,0,0,0,0,0,0,0,0,0,0,0,0,0,0,0,0,0,0,0,0,0,0,0,0,0,0,0,0,0,0,0,0,0,0,0,0 } };
const TfLiteAffineQuantization quant16 = { (TfLiteFloatArray*)&quant16_scale, (TfLiteIntArray*)&quant16_zero, 0 };
const ALIGN(16) int8_t tensor_data17[1*3*3*48] = { 
  /* [0][0][][] */ -65,50,-42,-52,-7,-17,16,-16,-2,-15,7,39,-3,-94,-95,19,127,-3,56,39,-104,-58,102,-106,-8,-48,-7,94,-12,13,34,127,-18,-11,-15,0,-10,-41,-8,20,110,-95,-55,46,78,-109,-29,-2, -10,-127,34,-127,-2,-20,-72,127,73,-76,23,39,17,-127,-111,11,-38,11,-31,-81,-82,3,73,127,13,-7,11,127,26,-5,10,-103,-97,23,-9,-28,127,-127,56,-8,-4,-122,-62,27,102,69,39,-32, -23,-1,17,-25,-3,34,18,64,-3,12,3,30,25,36,-87,25,72,11,-30,16,-127,50,64,24,-8,67,3,-43,-18,-1,10,-37,-51,2,-2,5,-26,117,-14,12,82,-60,14,-32,59,39,-39,-11, 
  /* [0][1][][] */ -32,-20,-117,-15,-29,23,-3,1,29,-63,-3,-106,-28,-51,-127,120,108,3,127,86,-18,127,127,106,6,-55,-39,1,44,-38,35,-106,5,-27,-54,-5,-5,-94,43,21,85,127,-25,-11,-64,127,58,-32, -127,50,127,118,127,-116,-127,-12,-20,-127,-127,-127,127,-25,-18,38,10,-127,-100,-127,123,-10,-78,-98,127,-37,127,-57,127,127,-45,75,-127,-127,127,-127,85,-86,-127,-127,25,109,-104,14,-127,-71,127,127, -19,4,11,21,40,127,-19,52,69,8,52,-50,-13,-16,-78,-20,72,48,-7,57,-64,-113,123,-23,9,127,17,2,43,28,127,26,10,9,57,12,-23,83,51,-9,4,78,127,-14,-53,-53,60,-6, 
  /* [0][2][][] */ -34,7,-55,-8,-4,-16,15,-14,37,19,5,45,-2,-9,80,0,21,0,56,12,-59,-5,75,23,-6,-52,-14,-72,2,-14,-9,-35,-4,51,-8,-4,-65,6,-8,7,22,-16,-44,-58,-16,13,-59,-36, -19,-45,51,-4,-81,-21,-84,-96,127,66,48,51,-6,-43,21,12,70,99,-37,-17,-87,2,23,-31,-2,-47,-69,-83,-13,-34,98,27,-56,47,-68,-13,25,-110,35,43,-127,-20,-121,127,26,0,56,-48, 11,-11,20,-6,-41,24,18,-97,8,-11,-19,25,9,26,99,-127,45,-23,-28,-11,-66,7,27,-3,-5,31,-30,8,-2,-27,21,13,-16,46,-44,0,-98,91,-19,26,5,-27,38,50,-22,-14,-72,-21, 
};
const TfArray<4, int> tensor_dimension17 = { 4, { 1,3,3,48 } };
const TfArray<48, float> quant17_scale = { 48, { 0.0089209731668233871, 0.012124298140406609, 0.008756125345826149, 0.01333441399037838, 0.016810424625873566, 0.021162515506148338, 0.0051696985028684139, 0.010905579663813114, 0.0030574710108339787, 0.0091290883719921112, 0.01712571457028389, 0.019394548609852791, 0.010226206853985786, 0.0066373837180435658, 0.0080969473347067833, 0.013396967202425003, 0.0027174619026482105, 0.070389740169048309, 0.017029089853167534, 0.007368764840066433, 0.0039986376650631428, 0.022747259587049484, 0.0046395435929298401, 0.0074156601913273335, 0.012511641718447208, 0.012208156287670135, 0.01439486350864172, 0.013227640651166439, 0.020497230812907219, 0.010895220562815666, 0.0065277507528662682, 0.022692382335662842, 0.003002585144713521, 0.016754072159528732, 0.0087865265086293221, 0.028427848592400551, 0.0065427026711404324, 0.0095149911940097809, 0.037547845393419266, 0.016228782013058662, 0.0021796249784529209, 0.014979934319853783, 0.0067167272791266441, 0.0059677991084754467, 0.01191238034516573, 0.011918544769287109, 0.0059652514755725861, 0.016310837119817734, } };
const TfArray<48, int> quant17_zero = { 48, { 0,0,0,0,0,0,0,0,0,0,0,0,0,0,0,0,0,0,0,0,0,0,0,0,0,0,0,0,0,0,0,0,0,0,0,0,0,0,0,0,0,0,0,0,0,0,0,0 } };
const TfLiteAffineQuantization quant17 = { (TfLiteFloatArray*)&quant17_scale, (TfLiteIntArray*)&quant17_zero, 3 };
const ALIGN(16) int32_t tensor_data18[48] = { 9758, 3440, -2024, 7601, -55, -1133, 5320, -429, 1563, 4745, -265, 122, -2378, 11481, 4043, -57, -5532, -409, -617, 117, 13441, -153, -15571, -192, -4920, 823, 413, 2, -1578, -1182, -4850, 188, 15446, -599, 578, 1540, -1516, 1628, -788, 1930, 18395, 764, 3277, 4, 335, -50, -4624, 6198, };
const TfArray<1, int> tensor_dimension18 = { 1, { 48 } };
const TfArray<48, float> quant18_scale = { 48, { 0.00020990525081288069, 0.00028527760878205299, 0.0002060264814645052, 0.00031375093385577202, 0.00039553942042402923, 0.00049794156802818179, 0.00012163996871095151, 0.00025660186656750739, 7.1940492489375174e-05, 0.00021480208670254797, 0.00040295798680745065, 0.0004563423281069845, 0.00024061663134489208, 0.0001561737444717437, 0.00019051640992984176, 0.00031522277276962996, 6.3940278778318316e-05, 0.0016562292585149407, 0.00040068448288366199, 0.00017338270845357329, 9.4085597083903849e-05, 0.00053522962843999267, 0.00010916573228314519, 0.00017448612197767943, 0.00029439158970490098, 0.00028725073207169771, 0.00033870266634039581, 0.00031123860389925539, 0.000482287781778723, 0.00025635812198743224, 0.00015359414101112634, 0.00053393840789794922, 7.0649060944560915e-05, 0.0003942134790122509, 0.00020674180996138602, 0.00066889054141938686, 0.00015394594811368734, 0.00022388214711099863, 0.00088347872951999307, 0.00038185369339771569, 5.1285293011460453e-05, 0.00035246904008090496, 0.00015804063878022134, 0.00014041880785953254, 0.00028029130771756172, 0.00028043636120855808, 0.00014035885396879166, 0.00038378441240638494, } };
const TfArray<48, int> quant18_zero = { 48, { 0,0,0,0,0,0,0,0,0,0,0,0,0,0,0,0,0,0,0,0,0,0,0,0,0,0,0,0,0,0,0,0,0,0,0,0,0,0,0,0,0,0,0,0,0,0,0,0 } };
const TfLiteAffineQuantization quant18 = { (TfLiteFloatArray*)&quant18_scale, (TfLiteIntArray*)&quant18_zero, 0 };
const ALIGN(16) int8_t tensor_data19[8*1*1*48] = { 
  /* [0][0][][] */ -25,-5,-9,-32,-66,-15,-6,-18,63,6,8,-4,10,15,-20,5,-31,12,-17,-18,0,9,-20,2,18,-8,84,9,-17,-81,-14,12,-5,34,127,-11,-24,-42,26,-38,25,5,-5,-18,-17,-1,-20,-85, 
  /* [1][0][][] */ 20,-30,-11,64,3,-8,17,38,70,80,44,-50,-54,73,2,4,-10,-29,20,-22,-63,41,-45,31,86,15,-30,33,28,-2,127,26,-17,-37,-33,-1,-14,11,-24,-10,2,-20,7,23,-5,38,28,24, 
  /* [2][0][][] */ -69,-3,-81,112,-70,-73,27,-64,-82,42,56,-97,-22,-10,-44,3,125,33,-75,-47,-69,-24,-44,16,84,-38,127,-6,84,-14,-67,16,3,-28,50,-4,-51,28,-1,-109,61,-75,-59,-123,-18,-73,-69,100, 
  /* [3][0][][] */ 25,-52,12,-41,34,-23,-9,-75,46,-63,4,-26,-86,-77,-18,8,12,-13,40,-37,-10,31,-83,2,75,-37,49,17,6,-5,-1,-27,-36,34,22,-30,-53,27,-1,-6,127,19,-48,36,-50,49,-10,-50, 
  /* [4][0][][] */ 21,3,13,13,6,33,-9,-12,44,21,7,-46,0,6,-64,17,1,18,23,-19,-26,27,3,40,35,4,-31,7,44,-13,-16,25,-2,-6,30,20,-127,-1,51,10,12,-8,-2,17,-32,49,-26,-96, 
  /* [5][0][][] */ -39,-97,34,119,-32,-4,-51,103,-100,85,48,31,-82,23,73,-39,-11,33,24,-5,-1,33,43,50,-49,12,-26,41,-45,-100,40,23,-109,-50,-27,-3,127,-3,-23,17,-35,-12,84,101,21,39,47,50, 
  /* [6][0][][] */ 87,1,-13,-12,86,-28,-26,-59,39,27,30,-27,-9,7,11,6,-2,0,-10,-29,-31,17,15,25,60,-55,51,0,-23,111,-21,10,42,29,-127,-18,-88,-34,26,-65,-13,-6,-6,-93,-5,4,-19,-11, 
  /* [7][0][][] */ -32,-71,58,-44,18,127,48,-47,-2,-91,-55,-3,-2,-24,-55,3,14,-54,112,62,50,-41,10,-2,-21,13,111,-7,51,28,10,-2,-39,-26,-47,107,-120,98,-35,-35,-51,55,8,-71,16,-19,68,-29, 
};
const TfArray<4, int> tensor_dimension19 = { 4, { 8,1,1,48 } };
const TfArray<8, float> quant19_scale = { 8, { 0.0098053421825170517, 0.0070290206931531429, 0.004179101437330246, 0.007392514031380415, 0.011349390260875225, 0.0053111151792109013, 0.0082562947645783424, 0.0041456623002886772, } };
const TfArray<8, int> quant19_zero = { 8, { 0,0,0,0,0,0,0,0 } };
const TfLiteAffineQuantization quant19 = { (TfLiteFloatArray*)&quant19_scale, (TfLiteIntArray*)&quant19_zero, 0 };
const ALIGN(16) int32_t tensor_data20[8] = { 6751, -12932, 679, 6095, 2761, -5753, 2198, 5517, };
const TfArray<1, int> tensor_dimension20 = { 1, { 8 } };
const TfArray<8, float> quant20_scale = { 8, { 0.00023071393661666662, 0.00016538873023819178, 9.8331802291795611e-05, 0.0001739415165502578, 0.00026704449555836618, 0.0001249674241989851, 0.00019426576909609139, 9.7544994787313044e-05, } };
const TfArray<8, int> quant20_zero = { 8, { 0,0,0,0,0,0,0,0 } };
const TfLiteAffineQuantization quant20 = { (TfLiteFloatArray*)&quant20_scale, (TfLiteIntArray*)&quant20_zero, 0 };
const ALIGN(16) int8_t tensor_data21[48*1*1*8] = { 
  /* [0][0][][] */ -31,66,-58,54,35,127,36,27, 
  /* [1][0][][] */ 52,-127,-93,-29,-34,60,64,-37, 
  /* [2][0][][] */ -46,48,-40,-112,-40,-127,-33,-71, 
  /* [3][0][][] */ -15,127,60,26,2,-77,-28,30, 
  /* [4][0][][] */ -105,46,-127,86,10,-22,-49,-69, 
  /* [5][0][][] */ 94,-104,-127,28,12,-17,73,-39, 
  /* [6][0][][] */ -16,-86,-62,15,-127,-47,-55,90, 
  /* [7][0][][] */ -21,-41,-12,-41,48,4,-28,127, 
  /* [8][0][][] */ 16,28,-94,-97,45,-36,-127,-90, 
  /* [9][0][][] */ -127,58,-9,101,-8,67,96,1, 
  /* [10][0][][] */ -28,-8,90,-127,-27,63,17,36, 
  /* [11][0][][] */ 105,-20,105,37,-42,46,82,127, 
  /* [12][0][][] */ 58,40,30,-52,65,112,96,-127, 
  /* [13][0][][] */ 34,55,-37,62,-9,-127,-38,53, 
  /* [14][0][][] */ 14,-127,-27,-28,13,69,34,-32, 
  /* [15][0][][] */ -96,-6,-4,-68,59,127,-70,-31, 
  /* [16][0][][] */ 10,-36,113,12,-26,27,127,74, 
  /* [17][0][][] */ 68,17,57,25,-14,-89,-39,-127, 
  /* [18][0][][] */ -127,22,-82,-16,-16,-124,28,-93, 
  /* [19][0][][] */ 69,22,121,-24,-64,41,112,127, 
  /* [20][0][][] */ 22,127,53,-9,23,41,43,9, 
  /* [21][0][][] */ -37,31,27,-107,-60,127,-3,-12, 
  /* [22][0][][] */ 31,-1,84,-10,-50,21,127,100, 
  /* [23][0][][] */ -73,127,57,47,-100,-91,-117,123, 
  /* [24][0][][] */ -14,-9,95,27,-115,127,-9,-92, 
  /* [25][0][][] */ -44,22,74,24,-127,43,-71,19, 
  /* [26][0][][] */ -43,-127,32,-42,12,41,-9,-14, 
  /* [27][0][][] */ -28,68,33,51,-25,127,-32,-13, 
  /* [28][0][][] */ 16,-127,55,23,55,126,39,36, 
  /* [29][0][][] */ 18,127,-21,28,-67,-60,-18,18, 
  /* [30][0][][] */ -49,72,106,90,-127,-67,-47,-109, 
  /* [31][0][][] */ 15,67,26,57,-50,-11,15,-127, 
  /* [32][0][][] */ -19,-31,-60,68,-127,-34,-49,5, 
  /* [33][0][][] */ 80,23,65,53,-33,65,56,127, 
  /* [34][0][][] */ 121,12,-127,-43,-54,-4,71,42, 
  /* [35][0][][] */ 121,102,102,-127,-59,-103,35,113, 
  /* [36][0][][] */ -41,-112,127,36,56,63,5,-30, 
  /* [37][0][][] */ -7,16,-24,-2,-12,-53,-44,127, 
  /* [38][0][][] */ 127,-1,54,7,-1,15,-63,35, 
  /* [39][0][][] */ 60,89,-117,-127,-103,93,45,-66, 
  /* [40][0][][] */ -41,127,-37,63,-53,-23,-58,-13, 
  /* [41][0][][] */ -127,42,-28,-51,69,46,0,-69, 
  /* [42][0][][] */ 42,-32,-5,-25,-26,127,12,84, 
  /* [43][0][][] */ -67,40,127,15,69,17,-39,6, 
  /* [44][0][][] */ 9,127,-2,29,-47,-64,-18,-2, 
  /* [45][0][][] */ -81,81,64,-127,-70,8,-69,-48, 
  /* [46][0][][] */ 39,-44,-18,18,27,13,-127,69, 
  /* [47][0][][] */ -90,-127,24,60,47,-74,10,93, 
};
const TfArray<4, int> tensor_dimension21 = { 4, { 48,1,1,8 } };
const TfArray<48, float> quant21_scale = { 48, { 0.0029424773529171944, 0.0027778914663940668, 0.0027914554812014103, 0.0045680426992475986, 0.0033207787200808525, 0.0026758848689496517, 0.0014887381112203002, 0.0022615764755755663, 0.0027641807682812214, 0.0020119720138609409, 0.0032117576338350773, 0.0036956914700567722, 0.0015166532248258591, 0.0053142476826906204, 0.0045673982240259647, 0.0026030372828245163, 0.0055537717416882515, 0.0016047215322032571, 0.0028892441187053919, 0.0027210551779717207, 0.0040196874178946018, 0.0006712583708576858, 0.0028296234086155891, 0.0021450989879667759, 0.0029905664268881083, 0.0020487813744693995, 0.0035231441725045443, 0.0033327098935842514, 0.0038426402024924755, 0.0049391016364097595, 0.002332921139895916, 0.0025096044410020113, 0.0027288773562759161, 0.004080627579241991, 0.0019851685501635075, 0.00099249649792909622, 0.0021583028137683868, 0.0017108295578509569, 0.0021048597991466522, 0.0025017019361257553, 0.0038081256207078695, 0.0033707297407090664, 0.002682714955881238, 0.0043392647057771683, 0.0026970268227159977, 0.002304410794749856, 0.00214730529114604, 0.0026370980776846409, } };
const TfArray<48, int> quant21_zero = { 48, { 0,0,0,0,0,0,0,0,0,0,0,0,0,0,0,0,0,0,0,0,0,0,0,0,0,0,0,0,0,0,0,0,0,0,0,0,0,0,0,0,0,0,0,0,0,0,0,0 } };
const TfLiteAffineQuantization quant21 = { (TfLiteFloatArray*)&quant21_scale, (TfLiteIntArray*)&quant21_zero, 0 };
const ALIGN(16) int32_t tensor_data22[48] = { 910, 2649, 1770, -215, -629, 325, 5941, 2884, 1972, -2830, 1301, 20, 5044, 90, 1019, -1471, -141, 4641, 836, 1389, -609, 25738, 1619, -1308, 1032, 4088, 1858, -1370, 194, 80, -2212, -1550, 2964, 862, 4848, 10715, 4476, 5175, -3039, -1405, -849, 1636, 1147, 491, -1817, -2410, 3073, 777, };
const TfArray<1, int> tensor_dimension22 = { 1, { 48 } };
const TfArray<48, float> quant22_scale = { 48, { 0.00027289564604870975, 0.00025763138546608388, 0.00025888934032991529, 0.00042365628178231418, 0.00030798063380643725, 0.00024817092344164848, 0.0001380707835778594, 0.00020974651852156967, 0.00025635981000959873, 0.00018659733177628368, 0.00029786964296363294, 0.00034275135840289295, 0.00014065972936805338, 0.00049286196008324623, 0.00042359650251455605, 0.00024141478934325278, 0.00051507621537894011, 0.00014882748655509204, 0.00026795861776918173, 0.00025236018700525165, 0.00037279987009242177, 6.2254854128696024e-05, 0.00026242918102070689, 0.00019894399156328291, 0.00027735560433939099, 0.00019001115288119763, 0.00032674873364157975, 0.00030908719054423273, 0.00035637989640235901, 0.00045806958223693073, 0.00021636327437590808, 0.00023274950217455626, 0.00025308562908321619, 0.00037845168844796717, 0.00018411148630548269, 9.2047601356171072e-05, 0.00020016856433358043, 0.00015866832109168172, 0.00019521206559147686, 0.00023201659496407956, 0.00035317891160957515, 0.0003126132651232183, 0.00024880436831153929, 0.00040243859984911978, 0.00025013170670717955, 0.00021371911861933768, 0.00019914860604330897, 0.00024457371910102665, } };
const TfArray<48, int> quant22_zero = { 48, { 0,0,0,0,0,0,0,0,0,0,0,0,0,0,0,0,0,0,0,0,0,0,0,0,0,0,0,0,0,0,0,0,0,0,0,0,0,0,0,0,0,0,0,0,0,0,0,0 } };
const TfLiteAffineQuantization quant22 = { (TfLiteFloatArray*)&quant22_scale, (TfLiteIntArray*)&quant22_zero, 0 };
const ALIGN(16) int8_t tensor_data23[1*3*3*48] = { 
  /* [0][0][][] */ -42,-81,-47,-67,-43,18,-40,-67,-54,56,39,-90,-27,22,-95,67,87,-73,-58,114,37,64,-47,98,-76,-61,62,69,54,-61,80,56,51,-52,-71,-34,-120,-54,124,60,-15,-15,30,64,71,93,-43,-51, -71,-117,-76,-115,-127,11,-84,-102,-67,90,77,-109,-66,69,-126,101,103,-104,-110,-5,80,76,92,123,-78,-92,102,94,91,-89,98,84,77,-91,-96,-62,-106,-81,127,88,-74,-59,58,84,80,127,-88,-91, -23,-55,-39,-66,-82,17,-48,-54,-46,44,42,-50,-21,76,-82,42,52,-37,-31,-47,56,-127,-53,46,-26,-41,48,23,44,-34,50,36,43,-46,-55,-28,-73,-35,18,41,-30,-36,38,49,26,58,-34,-32, 
  /* [0][1][][] */ -73,-96,-74,-82,-80,-20,-69,-81,-88,91,68,-100,-58,56,-127,80,106,-88,-74,127,77,81,-58,108,-108,-77,77,108,79,-86,93,74,77,-92,-98,-68,-126,-75,109,95,-78,-62,63,73,109,119,-66,-84, -127,-127,-127,-127,-121,-124,-127,-127,-127,127,127,-127,-127,127,-90,127,127,-127,-127,-51,127,85,127,127,-127,-127,127,127,127,-127,127,127,127,-127,-127,-127,-127,-127,125,127,-127,-127,127,127,127,124,-127,-127, -51,-45,-76,-84,-103,-107,-81,-81,-69,75,62,-73,-50,104,-71,55,95,-49,-50,-116,85,-126,-67,52,-35,-59,46,33,73,-65,68,58,71,-77,-70,-65,-87,-61,46,59,-74,-62,66,85,36,20,-50,-63, 
  /* [0][2][][] */ -33,-26,-37,-30,-58,-27,-37,-43,-48,61,24,-31,-26,9,-91,25,31,-33,-22,28,40,22,-28,37,-39,-21,23,39,33,-25,32,23,47,-51,-44,-41,-37,-25,3,49,-60,-46,33,18,43,32,-35,-26, -60,-24,-78,-51,-84,-127,-73,-55,-68,87,43,-58,-48,62,-89,35,52,-38,-37,-67,69,2,36,20,-48,-53,38,51,55,-59,45,50,69,-85,-72,-73,-43,-48,11,64,-89,-78,65,52,52,13,-70,-50, -28,10,-52,-40,-39,-115,-54,-47,-30,62,19,-50,-14,45,-3,14,52,-17,-31,-83,40,-48,-31,18,-6,-30,10,17,39,-32,20,24,39,-50,-54,-47,-16,-24,13,35,-51,-41,33,36,6,-1,-21,-31, 
};
const TfArray<4, int> tensor_dimension23 = { 4, { 1,3,3,48 } };
const TfArray<48, float> quant23_scale = { 48, { 0.0023509387392550707, 0.0029234352987259626, 0.0042639323510229588, 0.003013040404766798, 0.0048985555768013, 0.0038503275718539953, 0.0054908106103539467, 0.0052460450679063797, 0.0017904257401823997, 0.0033810397144407034, 0.0032464975956827402, 0.0021222052164375782, 0.0067133046686649323, 0.0021444202866405249, 0.0027551762759685516, 0.003509235568344593, 0.0014758552424609661, 0.0032194969244301319, 0.0024135811254382133, 0.0056846919469535351, 0.0027704383246600628, 0.011311354115605354, 0.0062211323529481888, 0.0041518327780067921, 0.0016942998627200723, 0.0028780761640518904, 0.0030532204546034336, 0.0046634520404040813, 0.002389588626101613, 0.00363704445771873, 0.010605907067656517, 0.009939318522810936, 0.0033121828455477953, 0.0030288528650999069, 0.0035394416190683842, 0.0054035536013543606, 0.0034066999796777964, 0.0054885018616914749, 0.0052417241968214512, 0.0037631192244589329, 0.0069699338637292385, 0.0017652162350714207, 0.003773142583668232, 0.002774564316496253, 0.016209086403250694, 0.005032186396420002, 0.0031579460483044386, 0.0037010363303124905, } };
const TfArray<48, int> quant23_zero = { 48, { 0,0,0,0,0,0,0,0,0,0,0,0,0,0,0,0,0,0,0,0,0,0,0,0,0,0,0,0,0,0,0,0,0,0,0,0,0,0,0,0,0,0,0,0,0,0,0,0 } };
const TfLiteAffineQuantization quant23 = { (TfLiteFloatArray*)&quant23_scale, (TfLiteIntArray*)&quant23_zero, 3 };
const ALIGN(16) int32_t tensor_data24[48] = { 21638, 24954, 10424, 18444, 6078, 10681, 14684, 9443, 46671, -1580, 347, 20900, 14626, -3185, 10118, 280, 5206, 30312, 18801, 17, 4623, -8720, -367, 977, 43179, 33768, 564, 95, -162, 14712, -1615, 1371, -16007, 15574, 27914, 25654, 28344, 19447, -60, -107, 5288, 38377, 389, -542, -54, -1535, 19792, 10654, };
const TfArray<1, int> tensor_dimension24 = { 1, { 48 } };
const TfArray<48, float> quant24_scale = { 48, { 5.5316206271527335e-05, 6.878671410959214e-05, 0.00010032782302005216, 7.0895068347454071e-05, 0.00011526013258844614, 9.0595945948734879e-05, 0.000129195541376248, 0.00012343635899014771, 4.2127663618884981e-05, 7.9553879913873971e-05, 7.6388183515518904e-05, 4.9934242269955575e-05, 0.00015796010848134756, 5.045695070293732e-05, 6.4827676396816969e-05, 8.2570251834113151e-05, 3.4726006560958922e-05, 7.575286872452125e-05, 5.6790144299156964e-05, 0.00013375746493693441, 6.5186788560822606e-05, 0.00026614952366799116, 0.00014637959247920662, 9.7690186521504074e-05, 3.9865881262812763e-05, 6.7719440266955644e-05, 7.1840484451968223e-05, 0.00010972828749800101, 5.62256172997877e-05, 8.5577521531376988e-05, 0.00024955076514743268, 0.00023386631801258773, 7.793371332809329e-05, 7.1267124440055341e-05, 8.3280981925781816e-05, 0.00012714244076050818, 8.0157646152656525e-05, 0.00012914121907670051, 0.00012333468475844711, 8.854398038238287e-05, 0.00016399844025727361, 4.1534502088325098e-05, 8.8779830548446625e-05, 6.5283864387311041e-05, 0.00038139027310535312, 0.00011840438673971221, 7.4304611189290881e-05, 8.7083208200056106e-05, } };
const TfArray<48, int> quant24_zero = { 48, { 0,0,0,0,0,0,0,0,0,0,0,0,0,0,0,0,0,0,0,0,0,0,0,0,0,0,0,0,0,0,0,0,0,0,0,0,0,0,0,0,0,0,0,0,0,0,0,0 } };
const TfLiteAffineQuantization quant24 = { (TfLiteFloatArray*)&quant24_scale, (TfLiteIntArray*)&quant24_zero, 0 };
const ALIGN(16) int8_t tensor_data25[8*1*1*48] = { 
  /* [0][0][][] */ -24,19,3,30,-20,10,-1,31,-47,-6,-38,-2,-16,15,36,2,-48,-21,30,-19,-27,127,-21,-20,-22,-37,4,31,-35,35,10,-24,-8,21,32,38,19,4,29,-24,4,-33,-19,-13,-20,22,23,14, 
  /* [1][0][][] */ 11,55,2,47,32,36,43,113,-47,-49,80,-32,-37,-32,28,-24,-20,-2,38,3,28,-127,-6,-68,9,12,-14,12,-7,11,-35,-59,-39,1,21,-12,16,62,69,-20,25,22,39,-29,-36,43,5,47, 
  /* [2][0][][] */ -2,26,1,27,26,17,-28,35,21,13,63,19,5,-13,33,-51,22,26,-9,10,-14,127,8,-11,20,-41,-5,0,-24,30,-19,-56,-15,10,18,-38,31,-12,-38,-25,24,-15,-9,-47,-32,34,13,17, 
  /* [3][0][][] */ -39,51,-5,3,-20,36,65,1,1,7,6,17,-16,36,45,19,-16,0,6,2,44,-79,-9,21,-17,2,-127,30,-36,-29,-10,8,-42,-13,13,30,33,-11,-38,-31,1,-17,11,19,21,-9,42,19, 
  /* [4][0][][] */ 21,0,-44,7,19,-8,18,-12,-53,8,-2,23,5,-10,-19,15,-30,34,-15,-8,0,-127,-9,-5,36,31,33,-45,44,-7,0,8,-13,49,29,-9,-22,15,-9,5,-10,-61,-85,19,31,34,-1,-9, 
  /* [5][0][][] */ -7,49,83,9,1,29,24,-105,69,-34,-15,-3,97,-67,-4,19,18,-38,41,2,-26,127,17,8,81,2,88,51,99,60,-3,-32,-70,-44,106,42,-48,-46,5,-98,12,-19,66,65,-49,-42,-26,-26, 
  /* [6][0][][] */ 67,-7,-28,15,47,-22,41,-49,48,34,1,-34,-16,47,22,-77,25,-127,-23,-19,28,-16,-5,27,-40,-37,46,-21,58,-40,121,47,51,43,29,-54,-60,15,60,-34,-28,26,-74,62,39,7,42,-48, 
  /* [7][0][][] */ -15,46,51,60,-3,16,61,102,58,34,3,72,-63,-10,31,-14,90,-16,-32,-15,-4,-127,0,-103,-78,78,57,20,8,29,20,-23,21,-26,16,27,-18,106,-98,-30,11,-3,32,-16,-53,3,43,17, 
};
const TfArray<4, int> tensor_dimension25 = { 4, { 8,1,1,48 } };
const TfArray<8, float> quant25_scale = { 8, { 0.0095376837998628616, 0.0072215702384710312, 0.0090976404026150703, 0.0069302590563893318, 0.0073339957743883133, 0.0035363854840397835, 0.0058847698383033276, 0.0051409243606030941, } };
const TfArray<8, int> quant25_zero = { 8, { 0,0,0,0,0,0,0,0 } };
const TfLiteAffineQuantization quant25 = { (TfLiteFloatArray*)&quant25_scale, (TfLiteIntArray*)&quant25_zero, 0 };
const ALIGN(16) int32_t tensor_data26[8] = { 6265, -1665, -2753, 3191, 2631, -18080, -2803, -10644, };
const TfArray<1, int> tensor_dimension26 = { 1, { 8 } };
const TfArray<8, float> quant26_scale = { 8, { 0.0002244161005364731, 0.00016991930897347629, 0.00021406213636510074, 0.00016306492034345865, 0.00017256461433134973, 8.3209073636680841e-05, 0.0001384651695843786, 0.00012096292630303651, } };
const TfArray<8, int> quant26_zero = { 8, { 0,0,0,0,0,0,0,0 } };
const TfLiteAffineQuantization quant26 = { (TfLiteFloatArray*)&quant26_scale, (TfLiteIntArray*)&quant26_zero, 0 };
const ALIGN(16) int8_t tensor_data27[48*1*1*8] = { 
  /* [0][0][][] */ 65,-91,41,0,52,-127,-5,-80, 
  /* [1][0][][] */ -47,-51,-74,61,-127,53,-32,19, 
  /* [2][0][][] */ 67,-54,55,-20,127,-27,-1,75, 
  /* [3][0][][] */ -10,127,-14,112,11,5,-47,-42, 
  /* [4][0][][] */ -31,127,73,-38,46,20,-65,20, 
  /* [5][0][][] */ -91,28,1,14,127,-24,85,-16, 
  /* [6][0][][] */ 124,-72,118,15,38,127,105,-21, 
  /* [7][0][][] */ -30,-48,50,53,84,20,-53,127, 
  /* [8][0][][] */ 14,-14,-32,-95,-14,127,-73,18, 
  /* [9][0][][] */ -127,24,-90,-2,98,-38,-58,10, 
  /* [10][0][][] */ -21,-79,46,30,-33,-91,-127,-81, 
  /* [11][0][][] */ 41,90,-21,-7,-26,-74,27,127, 
  /* [12][0][][] */ 48,-51,-97,48,-87,127,53,86, 
  /* [13][0][][] */ -43,-28,-127,19,-87,81,19,41, 
  /* [14][0][][] */ -59,127,-83,86,90,38,-13,78, 
  /* [15][0][][] */ -81,-11,-13,-6,84,76,-66,-127, 
  /* [16][0][][] */ 83,-127,-102,-32,-59,105,-53,-17, 
  /* [17][0][][] */ 15,127,-108,-53,-75,32,63,-114, 
  /* [18][0][][] */ -76,-113,41,22,127,-73,-31,78, 
  /* [19][0][][] */ -67,102,-25,43,7,-104,-127,50, 
  /* [20][0][][] */ 82,-18,39,-65,-6,-60,25,127, 
  /* [21][0][][] */ 61,-40,127,117,-39,112,97,-20, 
  /* [22][0][][] */ -29,107,7,3,127,-69,-112,-66, 
  /* [23][0][][] */ 36,-52,28,127,-1,-55,69,-34, 
  /* [24][0][][] */ -33,57,127,-66,-21,-27,15,-31, 
  /* [25][0][][] */ -53,-123,101,67,29,-5,-32,127, 
  /* [26][0][][] */ 65,-25,-127,-95,-107,50,29,106, 
  /* [27][0][][] */ 41,127,-105,-60,-46,23,33,-123, 
  /* [28][0][][] */ -25,50,-53,-91,-15,-41,-127,-39, 
  /* [29][0][][] */ -100,53,-127,-47,111,49,-49,-1, 
  /* [30][0][][] */ 83,-55,12,-25,-127,111,125,67, 
  /* [31][0][][] */ -59,81,-33,90,127,-75,-11,-3, 
  /* [32][0][][] */ 7,81,50,-52,127,-39,-18,-83, 
  /* [33][0][][] */ -127,55,-120,8,50,30,-30,7, 
  /* [34][0][][] */ 52,-12,58,-79,-35,-127,64,101, 
  /* [35][0][][] */ -127,32,51,-17,-83,1,0,5, 
  /* [36][0][][] */ -1,-44,-41,39,-11,10,127,39, 
  /* [37][0][][] */ -32,-24,-74,-50,-30,-127,-75,-11, 
  /* [38][0][][] */ -113,27,21,25,-127,23,40,9, 
  /* [39][0][][] */ -49,-47,37,-32,-27,107,-123,-127, 
  /* [40][0][][] */ 71,-127,18,74,-56,-63,122,67, 
  /* [41][0][][] */ 20,127,81,43,30,29,-96,-29, 
  /* [42][0][][] */ 34,127,-33,-15,-28,21,-12,-49, 
  /* [43][0][][] */ -71,55,-93,-127,18,22,-70,76, 
  /* [44][0][][] */ -47,24,-22,11,36,127,-11,-9, 
  /* [45][0][][] */ -2,81,-91,-39,-71,-81,-16,127, 
  /* [46][0][][] */ 27,117,-106,-33,-63,27,10,-127, 
  /* [47][0][][] */ 24,4,-7,-58,-63,-127,-25,41, 
};
const TfArray<4, int> tensor_dimension27 = { 4, { 48,1,1,8 } };
const TfArray<48, float> quant27_scale = { 48, { 0.001011461135931313, 0.0058802315033972263, 0.0053789899684488773, 0.0034616682678461075, 0.003697612788528204, 0.002191613195464015, 0.0012895101681351662, 0.0040163216181099415, 0.0011790113057941198, 0.0011929385364055634, 0.0027266608085483313, 0.0024792025797069073, 0.0047826017253100872, 0.0037034379784017801, 0.0014177685370668769, 0.0033247040119022131, 0.0021000194828957319, 0.0036643682979047298, 0.0030002575367689133, 0.0020445517729967833, 0.0038014310412108898, 0.0018968302756547928, 0.0026122757699340582, 0.0041495445184409618, 0.0025157576892524958, 0.0040408102795481682, 0.0018436849350109696, 0.0061617936007678509, 0.0023797526955604553, 0.0018167115049436688, 0.001894806046038866, 0.0013129210565239191, 0.0034543992951512337, 0.0016866187797859311, 0.0041924566030502319, 0.0051681087352335453, 0.0029145223088562489, 0.0040641268715262413, 0.0054740342311561108, 0.0015615111915394664, 0.0037201342638581991, 0.0030691090505570173, 0.0054565686732530594, 0.0017715400317683816, 0.0026640922296792269, 0.0018822842976078391, 0.0040427749045193195, 0.0044667455367743969, } };
const TfArray<48, int> quant27_zero = { 48, { 0,0,0,0,0,0,0,0,0,0,0,0,0,0,0,0,0,0,0,0,0,0,0,0,0,0,0,0,0,0,0,0,0,0,0,0,0,0,0,0,0,0,0,0,0,0,0,0 } };
const TfLiteAffineQuantization quant27 = { (TfLiteFloatArray*)&quant27_scale, (TfLiteIntArray*)&quant27_zero, 0 };
const ALIGN(16) int32_t tensor_data28[48] = { 15665, -309, 1225, 1386, 2910, 937, 7379, -553, 11785, 9601, -552, -90, 1476, 1424, 648, 2871, 3745, 3076, -2022, -621, 2864, 2895, 3961, 60, 4182, 2683, 7506, -653, 5866, -289, 6205, 7221, 3774, 738, 1085, 1983, 3361, 1527, 1465, 2601, -185, 3593, 2127, 5859, 5173, 2417, 252, 2326, };
const TfArray<1, int> tensor_dimension28 = { 1, { 48 } };
const TfArray<48, float> quant28_scale = { 48, { 6.6599495767150074e-05, 0.0003871828957926482, 0.00035417874460108578, 0.00022793299285694957, 0.00024346873397007585, 0.00014430642477236688, 8.4907595010008663e-05, 0.00026445405092090368, 7.7631812018807977e-05, 7.8548851888626814e-05, 0.00017953655333258212, 0.00016324270109180361, 0.00031490964465774596, 0.00024385227879974991, 9.3352740805130452e-05, 0.00021891460346523672, 0.00013827545626554638, 0.00024127974756993353, 0.0001975514751393348, 0.00013462318747770041, 0.000250304612563923, 0.00012489648361224681, 0.00017200488946400583, 0.0002732260909397155, 0.00016564966063015163, 0.00026606651954352856, 0.00012139714090153575, 0.00040572232683189213, 0.00015669444110244513, 0.00011962107964791358, 0.0001247632026206702, 8.6449079390149564e-05, 0.00022745438036508858, 0.00011105514568043873, 0.0002760516363196075, 0.00034029330709017813, 0.00019190626335330307, 0.00026760177570395172, 0.00036043691216036677, 0.00010281745926477015, 0.0002449516614433378, 0.00020208499336149544, 0.0003592869034036994, 0.00011664677003864199, 0.00017541673150844872, 0.00012393870565574616, 0.00026619588606990874, 0.00029411216382868588, } };
const TfArray<48, int> quant28_zero = { 48, { 0,0,0,0,0,0,0,0,0,0,0,0,0,0,0,0,0,0,0,0,0,0,0,0,0,0,0,0,0,0,0,0,0,0,0,0,0,0,0,0,0,0,0,0,0,0,0,0 } };
const TfLiteAffineQuantization quant28 = { (TfLiteFloatArray*)&quant28_scale, (TfLiteIntArray*)&quant28_zero, 0 };
const ALIGN(16) int8_t tensor_data29[1*3*3*48] = { 
  /* [0][0][][] */ -102,-18,48,-10,-127,11,-127,0,-12,127,68,11,-59,59,20,35,26,18,22,-7,-112,-16,6,54,-31,6,-8,-66,24,-113,88,48,-7,26,55,-39,18,-127,-28,125,-75,48,-9,-5,-11,9,4,-12, 15,-127,-11,24,-58,20,-124,-8,27,36,127,76,-91,-80,-88,-48,0,-49,114,96,18,64,-73,19,-74,-4,0,-127,9,-70,-27,-117,-7,16,-44,-127,-20,2,13,97,127,-18,-13,127,6,-127,3,-34, -127,7,45,3,-102,18,-73,-3,-10,107,-5,-13,-65,55,23,62,-45,-8,15,-29,-98,-27,42,20,4,-19,8,-44,-39,-127,50,1,6,14,-46,-35,17,-91,18,96,-70,37,-9,8,3,15,8,42, 
  /* [0][1][][] */ 59,-29,32,-5,-85,3,57,-17,-63,56,40,33,-78,-36,-63,116,-32,0,52,127,3,51,-107,-11,-35,-102,-20,-63,127,24,40,127,-127,-3,121,0,-5,36,-117,-127,47,-16,13,12,-127,46,1,-47, 118,-56,-127,-127,64,127,-10,127,-127,-92,-39,127,-83,-127,-127,-127,-12,-127,-77,67,127,127,-91,82,-127,81,-121,97,-59,-54,-127,-96,15,127,-127,102,-127,-53,127,-43,-66,127,-127,-70,105,83,-127,-75, 49,-20,85,-1,-54,-31,16,-26,-39,26,4,-26,-40,-81,-63,110,-127,-47,28,114,-29,53,-23,-127,18,-77,127,-1,-53,101,-50,105,113,-42,-48,16,-11,-3,-6,-58,24,-19,-9,-9,-4,35,-19,127, 
  /* [0][2][][] */ -104,-32,44,-19,-49,12,75,-2,86,53,72,12,-64,61,33,-10,57,40,9,-13,-52,-22,25,34,-29,-15,-6,7,5,31,81,3,-5,15,96,13,18,-44,-49,-5,-47,24,5,-13,-12,-11,-13,6, -65,-107,68,-48,-65,-16,124,-3,98,40,83,-37,117,-106,-69,-25,-39,29,-127,40,-70,5,-127,-13,19,-127,-2,31,2,63,14,-83,-6,-44,-9,27,-12,53,48,-57,-7,14,25,-44,22,-27,-6,8, -69,2,35,-1,-71,32,56,-4,44,24,9,21,-127,36,33,0,-56,43,2,-23,-42,-26,83,-64,-12,-25,11,29,-18,26,28,-40,-6,25,-18,13,22,-43,-2,-41,-39,48,19,0,-10,4,3,-6, 
};
const TfArray<4, int> tensor_dimension29 = { 4, { 1,3,3,48 } };
const TfArray<48, float> quant29_scale = { 48, { 0.012049944140017033, 0.0069169844500720501, 0.003707509022206068, 0.0076477513648569584, 0.0020577318500727415, 0.021367438137531281, 0.0092972554266452789, 0.014393812045454979, 0.015692451968789101, 0.01013721339404583, 0.0059222821146249771, 0.013738086447119713, 0.0027675495948642492, 0.0066400263458490372, 0.020595194771885872, 0.0053643472492694855, 0.0055022258311510086, 0.0079473080113530159, 0.024070587009191513, 0.0077726123854517937, 0.0066209440119564533, 0.0081428680568933487, 0.0058981138281524181, 0.0089013837277889252, 0.008744390681385994, 0.0067978561855852604, 0.019160572439432144, 0.010862198658287525, 0.014920970425009727, 0.013324263505637646, 0.0083517031744122505, 0.015364827588200569, 0.011102787218987942, 0.041890509426593781, 0.0063688335940241814, 0.0092351408675312996, 0.012030039913952351, 0.0071399775333702564, 0.0079605551436543465, 0.01324375718832016, 0.0078710941597819328, 0.0072590387426316738, 0.012058261781930923, 0.018814846873283386, 0.017466805875301361, 0.017933657392859459, 0.0099714715033769608, 0.012884046882390976, } };
const TfArray<48, int> quant29_zero = { 48, { 0,0,0,0,0,0,0,0,0,0,0,0,0,0,0,0,0,0,0,0,0,0,0,0,0,0,0,0,0,0,0,0,0,0,0,0,0,0,0,0,0,0,0,0,0,0,0,0 } };
const TfLiteAffineQuantization quant29 = { (TfLiteFloatArray*)&quant29_scale, (TfLiteIntArray*)&quant29_zero, 3 };
const ALIGN(16) int32_t tensor_data30[48] = { 8417, 7610, 13652, 11623, 56137, -2981, -894, -150, -437, -17947, -2772, -2677, 24832, 12817, 7081, -56, 9031, 10623, 570, -7381, 8072, -4158, 15955, -222, 8261, 13562, -167, -106, 83, 2868, 11893, 2334, 532, -2059, -562, 397, 10407, 6344, -12, 455, 10797, -10746, 6706, -69, 317, 1954, 8747, -2542, };
const TfArray<1, int> tensor_dimension30 = { 1, { 48 } };
const TfArray<48, float> quant30_scale = { 48, { 0.00018753732729237527, 0.00010765135812107474, 5.7701210607774556e-05, 0.00011902452388312668, 3.2025171094574034e-05, 0.00033254863228648901, 0.00014469631423708051, 0.00022401573369279504, 0.00024422691785730422, 0.00015776886721141636, 9.2170470452401787e-05, 0.00021381046099122614, 4.3072304833913222e-05, 0.00010334096441511065, 0.00032052994356490672, 8.3487138908822089e-05, 8.5632993432227522e-05, 0.00012368662282824516, 0.00037461862666532397, 0.00012096777936676517, 0.00010304397437721491, 0.00012673019955400378, 9.1794325271621346e-05, 0.00013853522250428796, 0.00013609189772978425, 0.00010579732042970136, 0.00029820241616107523, 0.00016905204392969608, 0.00023222007439471781, 0.00020736998703796417, 0.00012998036982025951, 0.00023912797041703016, 0.00017279641178902239, 0.00065195607021450996, 9.9120297818444669e-05, 0.00014372960140462965, 0.00018722756067290902, 0.0001111218734877184, 0.00012389279436320066, 0.00020611705258488655, 0.00012250048166606575, 0.00011297486344119534, 0.00018766678113024682, 0.00029282178729772568, 0.00027184176724404097, 0.00027910753851756454, 0.0001551893656142056, 0.00020051875617355108, } };
const TfArray<48, int> quant30_zero = { 48, { 0,0,0,0,0,0,0,0,0,0,0,0,0,0,0,0,0,0,0,0,0,0,0,0,0,0,0,0,0,0,0,0,0,0,0,0,0,0,0,0,0,0,0,0,0,0,0,0 } };
const TfLiteAffineQuantization quant30 = { (TfLiteFloatArray*)&quant30_scale, (TfLiteIntArray*)&quant30_zero, 0 };
const ALIGN(16) int8_t tensor_data31[8*1*1*48] = { 
  /* [0][0][][] */ 127,-17,-13,-11,-25,-85,-36,-13,53,-37,-56,-29,-25,77,-52,8,10,-7,7,10,32,-35,6,6,41,4,1,29,9,60,-40,-92,16,-62,6,-29,34,-40,-12,25,-60,-23,-27,-46,-80,-88,6,-28, 
  /* [1][0][][] */ -80,-3,90,-62,58,40,43,20,-20,19,-6,101,23,-31,-127,-53,-97,-88,34,-17,5,88,-50,0,18,-102,34,100,36,-27,37,42,45,42,0,30,-72,-28,22,16,2,-29,-103,22,-19,-52,-99,31, 
  /* [2][0][][] */ 97,43,-25,-63,-48,-2,-42,-85,40,26,-81,-48,-15,59,-61,40,-9,81,8,13,57,54,2,6,-127,19,32,-60,3,37,33,-83,17,-39,24,24,-55,-48,18,34,-124,-116,-25,-53,-43,-90,38,11, 
  /* [3][0][][] */ 18,2,24,25,-102,-22,-5,52,-29,-61,-12,79,12,-21,-81,-48,-29,28,5,-59,-45,127,17,-53,27,44,52,-49,17,15,12,22,35,24,14,-4,44,57,23,-6,36,-25,25,-47,-13,10,25,38, 
  /* [4][0][][] */ -51,15,-120,9,-14,96,13,35,-26,127,33,59,19,-72,-21,34,-17,-2,-11,31,-14,34,-76,18,6,-6,50,-12,39,-65,122,85,48,50,5,-53,-82,16,-5,-23,49,22,29,35,43,28,23,58, 
  /* [5][0][][] */ -28,-1,36,-11,57,-69,-34,-30,-32,-62,7,-31,38,2,-15,0,24,-6,6,32,15,61,20,15,17,-3,-35,-8,-36,1,-127,-12,-41,-11,25,-17,-4,-29,4,-18,-12,-1,-33,-11,31,36,-6,42, 
  /* [6][0][][] */ 5,51,-7,67,-18,36,-61,48,-76,-31,49,14,46,10,42,20,4,-45,-46,31,2,63,31,-34,-89,-9,-35,23,-94,-5,-88,0,3,-38,-46,-58,127,-7,-47,-56,52,34,38,-56,-79,-21,-56,-45, 
  /* [7][0][][] */ -54,13,-87,25,-25,-8,-12,-8,-61,-43,37,68,45,15,-68,-68,-63,86,-5,-7,47,11,33,-40,-45,101,-54,-109,-45,-12,-110,-15,-21,-37,-61,-3,-27,-45,-47,-25,-21,49,50,-17,-62,-64,127,-63, 
};
const TfArray<4, int> tensor_dimension31 = { 4, { 8,1,1,48 } };
const TfArray<8, float> quant31_scale = { 8, { 0.0036163176409900188, 0.0037531224079430103, 0.0032643680460751057, 0.0035508328583091497, 0.0037756150122731924, 0.0044566532596945763, 0.0034218952059745789, 0.003538875374943018, } };
const TfArray<8, int> quant31_zero = { 8, { 0,0,0,0,0,0,0,0 } };
const TfLiteAffineQuantization quant31 = { (TfLiteFloatArray*)&quant31_scale, (TfLiteIntArray*)&quant31_zero, 0 };
const ALIGN(16) int32_t tensor_data32[8] = { 17205, 5722, 13888, -6523, -13731, 10154, 4936, 16115, };
const TfArray<1, int> tensor_dimension32 = { 1, { 8 } };
const TfArray<8, float> quant32_scale = { 8, { 8.1360245530959219e-05, 8.4438092017080635e-05, 7.344205369008705e-05, 7.9886965977493674e-05, 8.4944134869147092e-05, 0.00010026619565906003, 7.6986114436294883e-05, 7.9617944720666856e-05, } };
const TfArray<8, int> quant32_zero = { 8, { 0,0,0,0,0,0,0,0 } };
const TfLiteAffineQuantization quant32 = { (TfLiteFloatArray*)&quant32_scale, (TfLiteIntArray*)&quant32_zero, 0 };
const ALIGN(16) int8_t tensor_data33[48*1*1*8] = { 
  /* [0][0][][] */ -13,-50,-40,102,9,-75,-81,-127, 
  /* [1][0][][] */ 127,-26,38,-27,27,-74,3,29, 
  /* [2][0][][] */ -11,47,8,-127,15,95,-62,63, 
  /* [3][0][][] */ -22,127,-50,-93,-102,-1,32,-86, 
  /* [4][0][][] */ 1,-69,-94,-41,26,-83,-66,-127, 
  /* [5][0][][] */ -46,-85,83,58,18,127,37,-123, 
  /* [6][0][][] */ 4,10,-44,32,4,18,-127,-48, 
  /* [7][0][][] */ 22,-20,11,22,-46,52,127,63, 
  /* [8][0][][] */ 1,44,-82,-27,-46,-127,-63,64, 
  /* [9][0][][] */ 63,6,-58,-22,7,127,-43,121, 
  /* [10][0][][] */ -19,57,78,127,93,118,-7,-51, 
  /* [11][0][][] */ -20,-57,-1,33,-127,66,-14,-20, 
  /* [12][0][][] */ -16,42,84,-66,75,-108,-127,-64, 
  /* [13][0][][] */ 45,31,-84,-127,-22,-64,-71,111, 
  /* [14][0][][] */ -43,-127,8,-77,-2,-79,17,-116, 
  /* [15][0][][] */ 6,71,70,98,92,127,-3,-27, 
  /* [16][0][][] */ 39,13,-30,-127,54,91,-68,84, 
  /* [17][0][][] */ -108,95,-127,37,27,107,-92,48, 
  /* [18][0][][] */ -127,62,20,-18,-92,18,-21,4, 
  /* [19][0][][] */ 127,3,-43,-27,88,-71,73,-87, 
  /* [20][0][][] */ 127,-64,46,-38,-66,29,87,3, 
  /* [21][0][][] */ 17,-32,-34,40,-5,25,127,33, 
  /* [22][0][][] */ 99,39,-127,-103,14,121,77,122, 
  /* [23][0][][] */ -28,39,-47,-85,43,5,-127,11, 
  /* [24][0][][] */ 127,-58,-103,-18,98,-61,10,26, 
  /* [25][0][][] */ -33,-78,72,-46,66,127,-28,-102, 
  /* [26][0][][] */ 21,-65,42,33,127,-61,-49,-68, 
  /* [27][0][][] */ -25,-127,62,88,16,-12,-46,107, 
  /* [28][0][][] */ -18,52,-105,-45,99,-108,-32,127, 
  /* [29][0][][] */ -81,32,127,-92,25,-41,41,36, 
  /* [30][0][][] */ 106,-78,81,-27,-65,-127,66,-26, 
  /* [31][0][][] */ 24,28,50,-6,-28,-7,-127,8, 
  /* [32][0][][] */ 16,-18,22,127,-27,-89,-41,-83, 
  /* [33][0][][] */ 113,-89,-69,127,-124,100,-66,-33, 
  /* [34][0][][] */ 12,-104,7,-72,-124,127,40,-34, 
  /* [35][0][][] */ 22,127,87,17,15,18,-59,-3, 
  /* [36][0][][] */ 28,101,-72,-127,-92,15,82,-77, 
  /* [37][0][][] */ 40,-7,46,12,40,127,64,18, 
  /* [38][0][][] */ -72,-92,96,61,29,-7,-66,127, 
  /* [39][0][][] */ 13,38,127,-49,-22,44,-25,28, 
  /* [40][0][][] */ 9,2,18,3,6,-32,127,5, 
  /* [41][0][][] */ -20,-10,-68,-127,-71,-89,-66,35, 
  /* [42][0][][] */ 46,-9,65,-39,-127,-54,-50,28, 
  /* [43][0][][] */ 76,-10,34,34,-65,-127,123,30, 
  /* [44][0][][] */ -80,-127,-11,-77,-4,13,-7,-123, 
  /* [45][0][][] */ 17,107,80,74,39,127,-64,32, 
  /* [46][0][][] */ -104,-10,0,69,103,51,-83,127, 
  /* [47][0][][] */ 21,81,-57,-38,2,-39,32,-127, 
};
const TfArray<4, int> tensor_dimension33 = { 4, { 48,1,1,8 } };
const TfArray<48, float> quant33_scale = { 48, { 0.0036393394693732262, 0.0038502034731209278, 0.0032354737631976604, 0.0026235613040626049, 0.0028647289145737886, 0.0015604454092681408, 0.0038131566252559423, 0.00077188672730699182, 0.0019351935479789972, 0.003191798459738493, 0.0023499487433582544, 0.0020324494689702988, 0.0034313739743083715, 0.0012790720211341977, 0.0018645026721060276, 0.0033443209249526262, 0.0011229701340198517, 0.0015328582376241684, 0.0049750483594834805, 0.0032319391611963511, 0.0016467343084514141, 0.0054335445165634155, 0.0029322642367333174, 0.0011271956609562039, 0.0030504039023071527, 0.0013350826920941472, 0.0035474402830004692, 0.0035785550717264414, 0.00096856470918282866, 0.0042754928581416607, 0.0019424575148150325, 0.0044682351872324944, 0.0043569360859692097, 0.001468986039981246, 0.0011119291884824634, 0.0044337152503430843, 0.0025891033001244068, 0.0028201120439916849, 0.0032829258125275373, 0.0025581242516636848, 0.0039136558771133423, 0.0036291365977376699, 0.0019075184827670455, 0.0026631704531610012, 0.00089361728169023991, 0.0024084560573101044, 0.0018099599983543158, 0.0037575282622128725, } };
const TfArray<48, int> quant33_zero = { 48, { 0,0,0,0,0,0,0,0,0,0,0,0,0,0,0,0,0,0,0,0,0,0,0,0,0,0,0,0,0,0,0,0,0,0,0,0,0,0,0,0,0,0,0,0,0,0,0,0 } };
const TfLiteAffineQuantization quant33 = { (TfLiteFloatArray*)&quant33_scale, (TfLiteIntArray*)&quant33_zero, 0 };
const ALIGN(16) int32_t tensor_data34[48] = { -1079, -1573, 2705, -567, -2391, 2438, 1890, 22172, 2009, 2406, 4419, 2586, 1359, 9308, 5584, -1783, 11959, 2297, 605, -2510, 62, -366, 1656, 11228, 858, 7049, 2285, -129, 7729, 185, 1921, -1196, -1307, -2958, -6621, 1257, 2480, 1816, 1861, 2382, 2249, 825, 4930, 2488, 14219, 4083, -1545, 693, };
const TfArray<1, int> tensor_dimension34 = { 1, { 48 } };
const TfArray<48, float> quant34_scale = { 48, { 0.00026925542624667287, 0.00028485612710937858, 0.00023937554215081036, 0.00019410338427405804, 0.00021194609871599823, 0.00011544908193172887, 0.00028211524477228522, 5.7107805332634598e-05, 0.00014317470777314156, 0.00023614424571860582, 0.00017386024410370737, 0.00015037016419228166, 0.00025386916240677238, 9.4631759566254914e-05, 0.00013794466212857515, 0.00024742857203818858, 8.3082602941431105e-05, 0.00011340805212967098, 0.0003680774534586817, 0.00023911404423415661, 0.00012183313810965046, 0.00040199916111305356, 0.00021694268798455596, 8.3395229012239724e-05, 0.00022568320855498314, 9.87756866379641e-05, 0.00026245630579069257, 0.00026475830236449838, 7.1658963861409575e-05, 0.00031632103491574526, 0.00014371212455444038, 0.00033058103872463107, 0.00032234660466201603, 0.00010868248500628397, 8.226574573200196e-05, 0.00032802709029056132, 0.00019155401969328523, 0.0002086451422655955, 0.00024288627901114523, 0.00018926204938907176, 0.00028955063316971064, 0.00026850056019611657, 0.00014112718054093421, 0.00019703386351466179, 6.6114007495343685e-05, 0.00017818888591136783, 0.00013390934327617288, 0.00027799958479590714, } };
const TfArray<48, int> quant34_zero = { 48, { 0,0,0,0,0,0,0,0,0,0,0,0,0,0,0,0,0,0,0,0,0,0,0,0,0,0,0,0,0,0,0,0,0,0,0,0,0,0,0,0,0,0,0,0,0,0,0,0 } };
const TfLiteAffineQuantization quant34 = { (TfLiteFloatArray*)&quant34_scale, (TfLiteIntArray*)&quant34_zero, 0 };
const ALIGN(16) int8_t tensor_data35[1*3*3*48] = { 
  /* [0][0][][] */ 91,82,50,33,-14,-74,34,27,-64,-14,-37,52,53,14,-7,16,53,-44,96,64,63,-12,5,11,-31,-71,57,5,-26,-75,34,41,34,-95,13,28,-31,42,-12,-127,0,-109,-43,-11,19,-127,71,-127, 127,18,68,-94,50,64,42,-52,-107,-89,4,127,9,-52,-127,29,-5,102,69,58,42,71,92,31,127,-50,-14,-127,-125,-43,-127,127,31,-99,-75,127,38,-86,-79,-120,17,127,-82,30,-41,-73,92,20, 77,1,29,-78,-22,-52,36,18,-58,-14,7,27,31,25,41,3,-47,12,73,62,-34,-37,-71,-7,-33,-65,-55,-35,-41,-89,9,18,58,-52,25,30,-62,-55,0,-98,8,-33,115,-20,8,-113,25,-60, 
  /* [0][1][][] */ 97,9,25,64,47,73,5,-127,105,-127,-127,-65,14,49,-59,127,-127,85,64,63,6,103,79,-41,-32,121,88,20,43,-27,-107,53,71,100,-68,43,-73,-1,-2,-69,-17,-65,22,-91,54,-11,51,-23, 1,127,-127,90,127,64,-127,17,114,-24,-30,83,-127,127,-28,6,45,-127,-127,2,127,28,127,-127,-120,97,-38,4,0,-19,47,-18,127,-23,127,-74,122,-127,127,113,127,73,-125,-5,115,49,-127,-18, 42,-5,11,-127,55,55,18,-88,127,-51,-127,-24,16,33,-55,101,79,-9,19,82,31,-127,40,115,-90,127,-62,-20,49,-6,-46,55,-9,80,119,47,-65,-25,-52,-29,-20,-28,127,127,127,-19,75,-14, 
  /* [0][2][][] */ 27,52,31,56,-5,-5,31,26,-4,-25,-7,-7,45,-64,42,-49,-8,26,75,-48,118,-5,7,-60,-110,-70,127,88,-3,-96,-56,81,30,46,-9,1,-72,29,3,-5,-18,-82,26,-12,17,0,38,-65, 45,12,7,9,-13,-127,-3,-80,-21,-38,-1,-12,-9,-59,-13,33,5,-47,19,127,103,64,63,23,26,-44,-59,52,-127,-28,-72,29,11,127,-48,3,-114,-115,26,-21,-97,82,-16,14,-33,-65,92,-33, 15,-1,31,-61,4,-2,39,36,-24,-5,26,-1,38,-61,53,-27,-3,-25,52,-122,13,-62,-70,63,-80,-72,-103,31,-12,-127,25,46,39,-32,-14,35,-127,-65,-24,-31,-20,-12,-8,11,-1,22,-23,-66, 
};
const TfArray<4, int> tensor_dimension35 = { 4, { 1,3,3,48 } };
const TfArray<48, float> quant35_scale = { 48, { 0.0034788434859365225, 0.011320427991449833, 0.0092709530144929886, 0.010894913226366043, 0.0065277721732854843, 0.021249657496809959, 0.0092429416254162788, 0.025300446897745132, 0.011789551936089993, 0.0037103651557117701, 0.0059069022536277771, 0.0062716463580727577, 0.0082114841789007187, 0.016463605687022209, 0.0083182565867900848, 0.011726810596883297, 0.025870909914374352, 0.015132115222513676, 0.0040655271150171757, 0.0086865630000829697, 0.0059350566007196903, 0.0087025146931409836, 0.0039940755814313889, 0.016389500349760056, 0.004842081107199192, 0.015868602320551872, 0.004818071611225605, 0.010244471952319145, 0.0094384532421827316, 0.0047554392367601395, 0.0068617872893810272, 0.0077963150106370449, 0.010783974081277847, 0.01584649458527565, 0.017987513914704323, 0.0066599021665751934, 0.0053573520854115486, 0.0040848245844244957, 0.016938047483563423, 0.0054060006514191628, 0.011361167766153812, 0.010119933634996414, 0.0058366968296468258, 0.010909677483141422, 0.011058114469051361, 0.0047803949564695358, 0.0064036352559924126, 0.0051278090104460716, } };
const TfArray<48, int> quant35_zero = { 48, { 0,0,0,0,0,0,0,0,0,0,0,0,0,0,0,0,0,0,0,0,0,0,0,0,0,0,0,0,0,0,0,0,0,0,0,0,0,0,0,0,0,0,0,0,0,0,0,0 } };
const TfLiteAffineQuantization quant35 = { (TfLiteFloatArray*)&quant35_scale, (TfLiteIntArray*)&quant35_zero, 3 };
const ALIGN(16) int32_t tensor_data36[48] = { -1105, -3911, 1536, -903, -150, -423, 4329, 16114, -5563, 17614, 14324, -2718, 5699, -1199, 7510, -923, 66, -431, 4054, -3435, -3584, -2365, -18858, -1523, 10095, -212, -625, 2288, 10075, 8305, 9049, -2338, -7718, -6, -2724, -5781, 5117, 8708, -3555, 14438, 1352, -321, -5605, -2976, -11147, 12878, -26, 8073, };
const TfArray<1, int> tensor_dimension36 = { 1, { 48 } };
const TfArray<48, float> quant36_scale = { 48, { 6.45399559289217e-05, 0.00021001805725973099, 0.00017199592548422515, 0.00020212384697515517, 0.00012110407988075167, 0.00039422640111297369, 0.00017147626203950495, 0.00046937717706896365, 0.0002187212958233431, 6.8835179263260216e-05, 0.0001095856205211021, 0.00011635239934548736, 0.00015234052261803299, 0.00030543495086021721, 0.00015432137297466397, 0.00021755731722805649, 0.00047996049397625029, 0.00028073295834474266, 7.5424184615258127e-05, 0.00016115425387397408, 0.00011010793969035149, 0.00016145018162205815, 7.4098607001360506e-05, 0.00030406014411710203, 8.9830915385391563e-05, 0.00029439636273309588, 8.9385488536208868e-05, 0.00019005677313543856, 0.00017510341422166675, 8.8223525381181389e-05, 0.00012730076559819281, 0.00014463825209531933, 0.00020006569684483111, 0.00029398623155429959, 0.0003337067028041929, 0.00012355536455288529, 9.9390294053591788e-05, 7.5782198109664023e-05, 0.00031423685140907764, 0.00010029282566392794, 0.00021077386918477714, 0.00018774632189888507, 0.00010828315862454474, 0.00020239775767549872, 0.0002051515766652301, 8.8686509116087109e-05, 0.00011880107194883749, 9.5131777925416827e-05, } };
const TfArray<48, int> quant36_zero = { 48, { 0,0,0,0,0,0,0,0,0,0,0,0,0,0,0,0,0,0,0,0,0,0,0,0,0,0,0,0,0,0,0,0,0,0,0,0,0,0,0,0,0,0,0,0,0,0,0,0 } };
const TfLiteAffineQuantization quant36 = { (TfLiteFloatArray*)&quant36_scale, (TfLiteIntArray*)&quant36_zero, 0 };
const ALIGN(16) int8_t tensor_data37[8*1*1*48] = { 
  /* [0][0][][] */ 14,38,33,33,-7,-32,48,49,4,27,-10,-12,48,-35,49,-21,-56,-31,-127,-7,44,-40,21,46,8,-9,45,-7,-8,-53,7,35,-47,50,48,5,50,79,-59,-54,7,21,-99,-48,35,25,-23,-58, 
  /* [1][0][][] */ -14,-42,0,71,-24,-1,-3,-13,13,9,-17,-48,-1,-5,15,6,44,23,56,-40,1,26,25,-49,0,-12,-31,-31,-36,8,-13,-3,-31,-28,-99,75,18,17,-127,-20,24,-13,68,24,104,-22,-39,45, 
  /* [2][0][][] */ -7,5,30,-35,-26,-19,-10,127,-44,83,-43,-2,125,-8,48,-16,-55,-69,-6,38,-6,-16,21,0,7,57,11,45,22,12,77,31,-64,-16,30,64,9,65,69,-117,48,34,-42,-28,12,33,-5,-8, 
  /* [3][0][][] */ 21,-5,-127,-29,16,-13,53,-34,-25,-22,-8,13,-47,-57,46,18,14,51,8,33,-59,18,-65,-8,-40,-72,28,7,-75,-58,-59,17,80,40,-43,20,-58,1,28,-16,30,-64,-24,19,53,-47,42,-15, 
  /* [4][0][][] */ 4,44,-2,-7,20,-5,-71,-116,-38,22,-21,75,8,-29,-2,55,39,50,-78,4,25,4,-29,-10,39,-8,4,-3,-24,7,-3,-32,18,-26,-127,30,-31,2,37,37,-32,-33,71,39,12,-48,15,12, 
  /* [5][0][][] */ -57,-33,101,13,82,24,55,-7,-127,0,-107,-18,-90,-85,58,82,-17,29,18,4,46,24,29,12,-22,1,5,-17,-42,-1,-20,-28,-28,44,73,25,-15,70,-22,-3,49,-43,-54,52,-11,19,37,27, 
  /* [6][0][][] */ 84,62,-17,26,23,-26,-102,-72,-2,3,-1,74,-20,-32,-3,36,-40,33,20,-2,127,-16,61,111,7,-55,15,-24,-51,-19,-37,-58,50,-31,18,-10,-4,29,-46,35,-53,-49,-65,-39,-24,-50,45,-4, 
  /* [7][0][][] */ 6,47,40,-78,55,-51,-36,-17,9,10,33,23,-35,-1,33,-10,-20,23,-16,50,-52,-8,-10,57,7,-34,2,38,-11,27,-37,-11,43,-12,-37,-39,-65,15,127,-10,13,-31,-26,-15,42,3,61,1, 
};
const TfArray<4, int> tensor_dimension37 = { 4, { 8,1,1,48 } };
const TfArray<8, float> quant37_scale = { 8, { 0.0045822802931070328, 0.0058162873610854149, 0.0033364756964147091, 0.0037898039445281029, 0.0051334444433450699, 0.0030984543263912201, 0.0052620703354477882, 0.0050249542109668255, } };
const TfArray<8, int> quant37_zero = { 8, { 0,0,0,0,0,0,0,0 } };
const TfLiteAffineQuantization quant37 = { (TfLiteFloatArray*)&quant37_scale, (TfLiteIntArray*)&quant37_zero, 0 };
const ALIGN(16) int32_t tensor_data38[8] = { -2639, -126, -14490, 10350, 8112, -2488, 8341, 2051, };
const TfArray<1, int> tensor_dimension38 = { 1, { 8 } };
const TfArray<8, float> quant38_scale = { 8, { 0.00010781836317619309, 0.00013685382145922631, 7.850531255826354e-05, 8.9171859144698828e-05, 0.00012078692816430703, 7.2904811531770974e-05, 0.00012381342821754515, 0.00011823421664303169, } };
const TfArray<8, int> quant38_zero = { 8, { 0,0,0,0,0,0,0,0 } };
const TfLiteAffineQuantization quant38 = { (TfLiteFloatArray*)&quant38_scale, (TfLiteIntArray*)&quant38_zero, 0 };
const ALIGN(16) int8_t tensor_data39[48*1*1*8] = { 
  /* [0][0][][] */ 22,-24,-72,19,-127,10,-61,1, 
  /* [1][0][][] */ -123,35,127,12,-115,-21,0,-12, 
  /* [2][0][][] */ 7,74,-32,21,-57,-127,-16,81, 
  /* [3][0][][] */ -80,35,-11,127,8,-48,-66,-40, 
  /* [4][0][][] */ 17,-18,41,-127,-22,24,-127,16, 
  /* [5][0][][] */ 66,127,-62,-46,-38,-13,36,-121, 
  /* [6][0][][] */ 62,-52,53,99,-44,-127,3,-99, 
  /* [7][0][][] */ 35,112,-53,-57,-56,-27,21,-127, 
  /* [8][0][][] */ 0,-30,51,-5,10,9,-49,-127, 
  /* [9][0][][] */ -86,-2,-106,24,-127,-82,-89,-24, 
  /* [10][0][][] */ 91,1,101,-40,-127,12,95,95, 
  /* [11][0][][] */ 127,-36,-76,10,56,3,-73,-4, 
  /* [12][0][][] */ -23,-110,127,16,22,11,-74,68, 
  /* [13][0][][] */ 34,-64,73,-10,16,-127,50,-114, 
  /* [14][0][][] */ -111,38,127,4,-29,-68,51,-48, 
  /* [15][0][][] */ 31,127,-40,-53,-65,2,32,-111, 
  /* [16][0][][] */ 26,100,-48,60,-4,-42,-14,127, 
  /* [17][0][][] */ 30,79,-15,83,-57,81,-127,41, 
  /* [18][0][][] */ 69,-29,127,-36,77,-101,11,-27, 
  /* [19][0][][] */ 9,-12,10,127,30,-42,-32,-86, 
  /* [20][0][][] */ 3,24,-29,42,-8,51,-127,12, 
  /* [21][0][][] */ 9,-5,50,22,25,127,49,-54, 
  /* [22][0][][] */ 63,-127,-13,60,-78,66,21,22, 
  /* [23][0][][] */ -41,-108,-6,-110,-5,-71,-8,-127, 
  /* [24][0][][] */ 19,22,-18,-63,-39,-127,-46,51, 
  /* [25][0][][] */ 63,71,127,16,2,23,-50,-1, 
  /* [26][0][][] */ -104,34,127,-50,-90,-15,95,-13, 
  /* [27][0][][] */ -77,45,-37,-98,28,127,-19,89, 
  /* [28][0][][] */ 16,-111,67,54,48,9,-33,127, 
  /* [29][0][][] */ -111,52,81,-38,-127,12,104,-42, 
  /* [30][0][][] */ 108,-105,16,69,-127,-18,47,-93, 
  /* [31][0][][] */ 51,85,56,-37,-110,-23,11,127, 
  /* [32][0][][] */ -38,-18,98,-50,30,9,-127,-116, 
  /* [33][0][][] */ 53,37,102,-127,19,45,-35,64, 
  /* [34][0][][] */ -16,-121,90,-32,36,127,64,-91, 
  /* [35][0][][] */ 42,7,96,3,13,127,27,-48, 
  /* [36][0][][] */ -20,34,-23,46,53,-127,7,17, 
  /* [37][0][][] */ 26,-25,58,23,-127,123,-35,-19, 
  /* [38][0][][] */ -127,-28,-107,-23,89,-32,-127,-31, 
  /* [39][0][][] */ 17,1,35,-113,-34,46,-127,15, 
  /* [40][0][][] */ 92,-26,-73,-127,64,61,61,-22, 
  /* [41][0][][] */ 20,-23,-9,127,-99,10,-82,-58, 
  /* [42][0][][] */ -85,25,73,127,-62,-65,-60,4, 
  /* [43][0][][] */ 80,-107,108,43,-127,30,118,55, 
  /* [44][0][][] */ 9,-42,38,-71,-25,127,42,20, 
  /* [45][0][][] */ -33,35,-38,3,74,-48,-127,-40, 
  /* [46][0][][] */ -97,-94,-7,-20,23,127,-38,-115, 
  /* [47][0][][] */ -120,-92,-49,29,20,127,-26,-65, 
};
const TfArray<4, int> tensor_dimension39 = { 4, { 48,1,1,8 } };
const TfArray<48, float> quant39_scale = { 48, { 0.0039649792015552521, 0.0036376337520778179, 0.0016495011514052749, 0.001690950826741755, 0.0011947958264499903, 0.0018927196506410837, 0.0025018665473908186, 0.00065610907040536404, 0.0027103000320494175, 0.0011171058285981417, 0.0017145914025604725, 0.0047148703597486019, 0.0015210023848339915, 0.0018510052468627691, 0.0030682787764817476, 0.0020711980760097504, 0.0015240298816934228, 0.0007489496492780745, 0.0029209339991211891, 0.004122802522033453, 0.0025359082501381636, 0.0018285380210727453, 0.0014752016868442297, 0.0023584533482789993, 0.0022208383306860924, 0.0034997030161321163, 0.0026865759864449501, 0.002576576778665185, 0.0023418988566845655, 0.0022824150510132313, 0.0012842136202380061, 0.0026878803037106991, 0.0018979659071192145, 0.0020944601856172085, 0.0011928727617487311, 0.0016154224285855889, 0.00092017592396587133, 0.0016918471083045006, 0.0014593780506402254, 0.0029072647448629141, 0.0027019549161195755, 0.0011072534834966063, 0.0027665691450238228, 0.0011775760212913156, 0.0010634994832798839, 0.0020845916587859392, 0.0021040500141680241, 0.0018804557621479034, } };
const TfArray<48, int> quant39_zero = { 48, { 0,0,0,0,0,0,0,0,0,0,0,0,0,0,0,0,0,0,0,0,0,0,0,0,0,0,0,0,0,0,0,0,0,0,0,0,0,0,0,0,0,0,0,0,0,0,0,0 } };
const TfLiteAffineQuantization quant39 = { (TfLiteFloatArray*)&quant39_scale, (TfLiteIntArray*)&quant39_zero, 0 };
const ALIGN(16) int32_t tensor_data40[48] = { -266, 931, 1875, 3707, 8269, -842, -1555, 15647, 1072, 7912, 460, -868, 4485, -3803, 2457, -1303, -257, -2089, 795, 1357, 2726, 2845, 4557, 644, -2377, -1331, 427, 2137, 1445, 2765, -1403, 2481, 3856, 3832, 3744, 1404, 10100, 1499, 1065, -838, 618, 9161, -550, 1869, 8379, 155, 1331, 4470, };
const TfArray<1, int> tensor_dimension40 = { 1, { 48 } };
const TfArray<48, float> quant40_scale = { 48, { 0.00037213883479125798, 0.00034141534706577659, 0.00015481629816349596, 0.00015870662173256278, 0.0001121392851928249, 0.00017764393123798072, 0.00023481628159061074, 6.1580059991683811e-05, 0.00025437911972403526, 0.00010484757513040677, 0.00016092543955892324, 0.00044252094812691212, 0.00014275587454903871, 0.00017372876754961908, 0.00028797771665267646, 0.00019439528114162385, 0.0001430400152457878, 7.0293746830429882e-05, 0.00027414844953455031, 0.00038695154944434762, 0.0002380113146500662, 0.00017162006406579167, 0.00013845718058291823, 0.00022135603649076074, 0.00020843997481279075, 0.00032846967224031687, 0.00025215244386345148, 0.00024182832567021251, 0.00021980228484608233, 0.00021421935525722802, 0.00012053171667503193, 0.00025227488367818296, 0.00017813632439356297, 0.00019657857774291188, 0.00011195879051228985, 0.00015161780174821615, 8.6364438175223768e-05, 0.00015879074635449797, 0.00013697202666662633, 0.00027286552358418703, 0.00025359587743878365, 0.00010392286640126258, 0.00025966032990254462, 0.00011052309127990156, 9.9816272268071771e-05, 0.00019565234833862633, 0.00019747864280361682, 0.00017649287474341691, } };
const TfArray<48, int> quant40_zero = { 48, { 0,0,0,0,0,0,0,0,0,0,0,0,0,0,0,0,0,0,0,0,0,0,0,0,0,0,0,0,0,0,0,0,0,0,0,0,0,0,0,0,0,0,0,0,0,0,0,0 } };
const TfLiteAffineQuantization quant40 = { (TfLiteFloatArray*)&quant40_scale, (TfLiteIntArray*)&quant40_zero, 0 };
const ALIGN(16) int8_t tensor_data41[1*3*3*48] = { 
  /* [0][0][][] */ 112,-127,-93,-59,-127,75,110,-80,79,51,71,101,39,127,-51,66,55,95,-93,-68,-94,-77,-56,75,74,87,90,70,73,-75,-39,-64,-127,-74,-76,127,65,-71,-23,87,77,-78,78,44,-97,64,67,-95, 107,-90,-96,-127,-126,95,96,-99,105,87,91,117,80,93,-104,44,93,108,-104,-51,-117,-93,-74,112,91,99,109,99,92,-81,122,-107,-6,-106,-90,14,49,-87,-127,105,108,-111,86,80,99,99,120,-127, 39,-108,-74,-80,-46,34,43,-16,48,39,38,28,72,-3,-73,-27,48,54,-35,-31,-81,-49,-46,36,30,45,31,42,30,-11,-38,-46,-92,-76,-74,1,-108,-15,-64,23,43,-58,37,35,-9,45,47,-66, 
  /* [0][1][][] */ 127,-105,-117,-42,-112,94,127,-106,97,81,92,122,72,75,-120,53,79,113,-124,-127,-106,-100,-89,86,104,97,114,103,108,-94,-19,-77,-116,-92,-95,111,66,-105,-69,104,91,-89,99,75,-120,75,63,-99, 121,-46,-127,-119,-109,127,125,-127,127,127,127,127,127,99,-127,-88,127,127,-127,-102,-127,-127,-127,127,127,127,127,127,127,-127,127,-127,-16,-127,-127,48,44,-127,-117,127,127,-127,127,127,127,127,127,-120, 30,-86,-69,-103,-37,36,22,-22,56,71,62,18,104,28,-61,-127,68,57,-39,-67,-70,-61,-81,54,43,48,36,56,49,-56,-58,-61,-86,-69,-92,-64,-127,-29,-102,26,53,-61,59,45,-38,62,55,-97, 
  /* [0][2][][] */ 41,-51,-34,-23,-20,21,80,-1,43,32,21,53,70,-31,-114,-8,40,37,-48,-71,-38,-51,-44,16,51,50,66,39,58,-31,10,-18,-71,-30,-49,21,42,-84,-43,27,23,-18,45,65,-37,23,9,-48, 54,-48,-93,-37,-15,33,71,-23,64,55,33,49,106,9,-96,-109,57,40,-76,-34,-30,-40,-79,26,53,58,61,55,64,-57,31,-45,-16,-49,-63,24,30,-107,-79,27,36,-5,53,70,19,48,29,-30, 19,-57,-21,-10,30,27,24,-1,35,39,28,9,63,15,-67,-96,24,37,-15,-34,-42,-25,-55,17,21,16,34,24,37,-5,-35,-24,-82,-34,-23,-45,-81,-31,-64,19,16,-1,21,48,-21,26,18,-36, 
};
const TfArray<4, int> tensor_dimension41 = { 4, { 1,3,3,48 } };
const TfArray<48, float> quant41_scale = { 48, { 0.0023115410003811121, 0.0021656835451722145, 0.0034837813582271338, 0.0032748153898864985, 0.0038046024274080992, 0.0043499181047081947, 0.0043367687612771988, 0.011061477474868298, 0.0028817732818424702, 0.0035866056568920612, 0.004094413947314024, 0.0023798223119229078, 0.0021092440001666546, 0.010136621072888374, 0.0017303848871961236, 0.009204457513988018, 0.0049603790976107121, 0.0094206118956208229, 0.0016951062716543674, 0.0014395184116438031, 0.0022734384983778, 0.0031258126255124807, 0.0029039150103926659, 0.0029778743628412485, 0.0065576140768826008, 0.0041470401920378208, 0.0027198127936571836, 0.0022863892372697592, 0.0048710149712860584, 0.0029940127860754728, 0.0074742087163031101, 0.0016918819164857268, 0.0030752082820981741, 0.0021343270782381296, 0.0033926055766642094, 0.0075162430293858051, 0.010737255215644836, 0.0024873556103557348, 0.0042908745817840099, 0.0028299251571297646, 0.0028095368761569262, 0.0049552838318049908, 0.0033901345450431108, 0.0041301422752439976, 0.010840041562914848, 0.0045845764689147472, 0.0029082195833325386, 0.0023187620099633932, } };
const TfArray<48, int> quant41_zero = { 48, { 0,0,0,0,0,0,0,0,0,0,0,0,0,0,0,0,0,0,0,0,0,0,0,0,0,0,0,0,0,0,0,0,0,0,0,0,0,0,0,0,0,0,0,0,0,0,0,0 } };
const TfLiteAffineQuantization quant41 = { (TfLiteFloatArray*)&quant41_scale, (TfLiteIntArray*)&quant41_zero, 3 };
const ALIGN(16) int32_t tensor_data42[48] = { 1114, 12532, 16710, 23221, 23564, -1363, -1986, 20193, 1803, -2902, -2165, 6231, -778, -2213, 23053, -72, 39, 551, 31292, 36563, 27623, 24936, 23935, 977, -181, 312, -2338, -1003, -16085, 11483, -7038, 47259, 14137, 48315, 16265, -7354, -233, 26164, 8924, -125, 598, 23872, 37, -3361, -3239, 364, 2016, 23918, };
const TfArray<1, int> tensor_dimension42 = { 1, { 48 } };
const TfArray<48, float> quant42_scale = { 48, { 5.4389201977755874e-05, 5.0957260100403801e-05, 8.1971324107144028e-05, 7.7054479334037751e-05, 8.952005737228319e-05, 0.00010235101944999769, 0.00010204161662841216, 0.00026027005515061319, 6.7806431616190821e-05, 8.4390725533012301e-05, 9.6339150331914425e-05, 5.5995820730458945e-05, 4.9629270506557077e-05, 0.00023850874276831746, 4.0714938222663477e-05, 0.00021657547040376812, 0.00011671480751829222, 0.00022166146663948894, 3.9884853322291747e-05, 3.3871023333631456e-05, 5.3492673032451421e-05, 7.3548537329770625e-05, 6.8327412009239197e-05, 7.0067631895653903e-05, 0.00015429680934175849, 9.7577416454441845e-05, 6.3995597884058952e-05, 5.379739377531223e-05, 0.00011461212125141174, 7.0447364123538136e-05, 0.00017586373724043369, 3.9808986912248656e-05, 7.2357841418124735e-05, 5.0219463446410373e-05, 7.9826015280559659e-05, 0.0001768527872627601, 0.00025264130090363324, 5.8526016800897196e-05, 0.00010096175537910312, 6.65864790789783e-05, 6.6106753365602344e-05, 0.0001165949142887257, 7.9767873103264719e-05, 9.7179821750614792e-05, 0.00025505980011075735, 0.0001078723871614784, 6.8428700615186244e-05, 5.4559106501983479e-05, } };
const TfArray<48, int> quant42_zero = { 48, { 0,0,0,0,0,0,0,0,0,0,0,0,0,0,0,0,0,0,0,0,0,0,0,0,0,0,0,0,0,0,0,0,0,0,0,0,0,0,0,0,0,0,0,0,0,0,0,0 } };
const TfLiteAffineQuantization quant42 = { (TfLiteFloatArray*)&quant42_scale, (TfLiteIntArray*)&quant42_zero, 0 };
const ALIGN(16) int8_t tensor_data43[8*1*1*48] = { 
  /* [0][0][][] */ -31,-22,20,-27,-16,-24,-80,17,11,2,-48,-38,25,-21,-7,-13,-14,26,-50,31,5,-53,77,-23,-57,24,62,127,20,-30,-93,57,-35,-30,-3,51,-12,7,1,44,-3,51,26,-118,-20,30,30,-25, 
  /* [1][0][][] */ -10,-3,-12,2,13,46,-28,-44,-73,-97,84,-28,-58,-9,-24,4,34,18,45,27,-6,-29,-22,-40,6,45,32,67,-43,-36,127,-59,24,-57,-18,30,11,-87,31,-15,17,-23,-17,61,77,-92,-59,11, 
  /* [2][0][][] */ -24,36,-4,7,-68,-20,-1,14,-49,47,2,47,30,6,-10,-5,-26,-47,-27,19,12,127,18,60,101,-25,-39,24,20,42,-111,-37,12,-86,44,-83,11,51,-16,91,93,39,-79,-14,-62,26,-82,47, 
  /* [3][0][][] */ 55,-8,62,-30,-36,55,4,-49,-6,95,-105,40,-35,-127,46,13,-59,68,16,38,-72,-36,30,-34,-27,77,-45,11,-53,23,53,-60,-11,-60,119,-11,-7,-45,25,19,-52,-32,57,-88,-78,13,-87,31, 
  /* [4][0][][] */ 21,23,-7,-4,-2,16,-33,-9,-31,37,-9,7,-36,-29,15,11,61,25,8,1,-31,-15,-28,-34,-1,-56,-41,55,-13,22,123,34,7,49,-61,11,23,19,-27,12,58,-5,-57,-34,127,49,87,-36, 
  /* [5][0][][] */ -59,13,19,-64,75,18,22,-16,-43,-119,-7,59,-33,38,-7,13,56,24,-38,-63,-16,-3,42,-96,-16,51,-65,-62,-13,55,-110,65,12,-37,-22,28,-51,79,-11,-64,65,5,-33,-28,-127,108,-39,29, 
  /* [6][0][][] */ 38,-8,20,-30,-2,-97,-17,71,-119,19,-1,-28,49,-93,-2,-47,76,66,16,30,-45,1,18,-79,18,16,14,30,127,-11,62,-34,20,38,-3,-20,-25,-24,-25,-14,-43,-22,42,-2,-29,16,-24,7, 
  /* [7][0][][] */ -9,49,26,42,-58,-60,21,28,121,-127,-47,89,74,4,10,-19,-24,29,62,-39,-46,-59,-40,-30,-92,59,-114,-20,55,53,96,49,-27,-124,40,72,32,-88,66,55,60,-63,-60,-11,120,-59,-18,-24, 
};
const TfArray<4, int> tensor_dimension43 = { 4, { 8,1,1,48 } };
const TfArray<8, float> quant43_scale = { 8, { 0.0050476617179811001, 0.0041864346712827682, 0.0049209385178983212, 0.0042296750470995903, 0.0069826487451791763, 0.0035479741636663675, 0.0039418716914951801, 0.0033629061654210091, } };
const TfArray<8, int> quant43_zero = { 8, { 0,0,0,0,0,0,0,0 } };
const TfLiteAffineQuantization quant43 = { (TfLiteFloatArray*)&quant43_scale, (TfLiteIntArray*)&quant43_zero, 0 };
const ALIGN(16) int32_t tensor_data44[8] = { 1459, 16329, -2114, 11806, -15128, 16060, -240, 9151, };
const TfArray<1, int> tensor_dimension44 = { 1, { 8 } };
const TfArray<8, float> quant44_scale = { 8, { 0.00011531862401170656, 9.5643074018880725e-05, 0.00011242351320106536, 9.6630945336073637e-05, 0.00015952523972373456, 8.105683809844777e-05, 9.0055800683330745e-05, 7.6828786404803395e-05, } };
const TfArray<8, int> quant44_zero = { 8, { 0,0,0,0,0,0,0,0 } };
const TfLiteAffineQuantization quant44 = { (TfLiteFloatArray*)&quant44_scale, (TfLiteIntArray*)&quant44_zero, 0 };
const ALIGN(16) int8_t tensor_data45[48*1*1*8] = { 
  /* [0][0][][] */ 95,127,42,2,8,66,7,90, 
  /* [1][0][][] */ -8,66,-8,74,31,29,-127,-73, 
  /* [2][0][][] */ 39,-94,-127,88,-31,36,-69,124, 
  /* [3][0][][] */ 77,65,127,-112,30,-51,74,-21, 
  /* [4][0][][] */ -29,127,-19,-27,3,-44,4,-57, 
  /* [5][0][][] */ -30,127,-66,-82,-93,4,1,53, 
  /* [6][0][][] */ -127,-72,-106,-38,-3,108,20,-58, 
  /* [7][0][][] */ 24,-30,127,-46,-67,36,4,-69, 
  /* [8][0][][] */ -78,95,55,24,-73,-127,-25,-36, 
  /* [9][0][][] */ -94,31,18,-6,127,-70,51,35, 
  /* [10][0][][] */ 106,-33,64,-64,-122,127,-41,-18, 
  /* [11][0][][] */ -46,-47,-109,48,-12,-14,-127,-118, 
  /* [12][0][][] */ -29,35,-26,-121,106,-127,-53,22, 
  /* [13][0][][] */ 127,94,90,82,-42,27,19,45, 
  /* [14][0][][] */ -127,-39,39,84,125,-118,79,-64, 
  /* [15][0][][] */ -27,79,32,-34,16,13,-69,127, 
  /* [16][0][][] */ 2,25,31,83,-127,43,-40,-29, 
  /* [17][0][][] */ -8,7,6,127,30,-31,-18,-44, 
  /* [18][0][][] */ 21,43,-127,-17,-90,-77,-1,-21, 
  /* [19][0][][] */ 89,106,62,73,127,-36,7,-17, 
  /* [20][0][][] */ 88,2,-59,37,-40,-82,-6,-127, 
  /* [21][0][][] */ -15,8,104,-31,-29,-105,-127,52, 
  /* [22][0][][] */ -112,-8,55,63,127,5,-28,-71, 
  /* [23][0][][] */ 29,127,73,0,-68,-56,62,18, 
  /* [24][0][][] */ -88,-127,58,-22,60,-112,28,-50, 
  /* [25][0][][] */ 31,-16,-27,-80,-18,-118,27,-127, 
  /* [26][0][][] */ 71,-127,-65,92,24,75,12,-48, 
  /* [27][0][][] */ -24,-64,51,94,65,-63,60,-127, 
  /* [28][0][][] */ 85,-127,66,85,3,8,-41,104, 
  /* [29][0][][] */ 36,2,-79,7,-27,-127,35,-104, 
  /* [30][0][][] */ -55,28,127,103,-53,55,77,-114, 
  /* [31][0][][] */ 5,30,47,-29,-65,34,116,127, 
  /* [32][0][][] */ -1,46,-17,68,23,8,-127,-67, 
  /* [33][0][][] */ -84,15,97,70,-82,72,106,-127, 
  /* [34][0][][] */ 2,36,-18,-44,-40,127,7,6, 
  /* [35][0][][] */ 101,-112,127,1,35,-55,-67,-35, 
  /* [36][0][][] */ 23,104,127,36,10,-60,15,49, 
  /* [37][0][][] */ 113,-127,-5,64,26,-50,-56,29, 
  /* [38][0][][] */ 33,-15,7,-53,-3,-46,127,30, 
  /* [39][0][][] */ 17,-29,30,35,16,127,92,-117, 
  /* [40][0][][] */ 60,79,127,-61,62,0,28,-7, 
  /* [41][0][][] */ 22,94,96,-127,43,-51,57,57, 
  /* [42][0][][] */ -54,-90,-58,127,-20,-16,9,105, 
  /* [43][0][][] */ 11,-127,6,19,-84,98,-60,-50, 
  /* [44][0][][] */ 62,69,-53,-10,-43,-97,9,-127, 
  /* [45][0][][] */ -16,93,-23,-12,50,43,-127,-77, 
  /* [46][0][][] */ 23,-33,-78,-27,-11,-127,75,-106, 
  /* [47][0][][] */ 56,-72,54,127,-10,48,64,-74, 
};
const TfArray<4, int> tensor_dimension45 = { 4, { 48,1,1,8 } };
const TfArray<48, float> quant45_scale = { 48, { 0.0043573463335633278, 0.0058959196321666241, 0.0024342108517885208, 0.0037816695403307676, 0.0021331734023988247, 0.0016004096250981092, 0.0042090415954589844, 0.00023971647897269577, 0.0028078488539904356, 0.0016988029237836599, 0.0013006639201194048, 0.0014871690655127168, 0.00089053576812148094, 0.00179556745570153, 0.0033350111916661263, 0.0015630919951945543, 0.0013584647094830871, 0.0033269948326051235, 0.0015159398317337036, 0.0017718191957101226, 0.0028505660593509674, 0.0026760243345052004, 0.0028125555254518986, 0.0026068179868161678, 0.0039421371184289455, 0.005526149645447731, 0.0013105322141200304, 0.0017113696085289121, 0.0013873878633603454, 0.0022151682060211897, 0.0010999080259352922, 0.0052968594245612621, 0.0071784346364438534, 0.0010713746305555105, 0.0052952994592487812, 0.0017726767109706998, 0.0018143034540116787, 0.0020265397615730762, 0.0063624689355492592, 0.0011457912623882294, 0.003938854206353426, 0.0019771812949329615, 0.0018785040592774749, 0.0013908848632127047, 0.0029825977981090546, 0.0031249432358890772, 0.0052387216128408909, 0.0010140534723177552, } };
const TfArray<48, int> quant45_zero = { 48, { 0,0,0,0,0,0,0,0,0,0,0,0,0,0,0,0,0,0,0,0,0,0,0,0,0,0,0,0,0,0,0,0,0,0,0,0,0,0,0,0,0,0,0,0,0,0,0,0 } };
const TfLiteAffineQuantization quant45 = { (TfLiteFloatArray*)&quant45_scale, (TfLiteIntArray*)&quant45_zero, 0 };
const ALIGN(16) int32_t tensor_data46[48] = { 1682, 1517, 5584, 2474, 4990, -690, 101, 86397, 3036, 2504, 5309, 11588, 12457, 4616, 2499, 3884, 9368, 2220, 10030, 9400, 397, 441, 5247, 5952, 2365, 769, 4950, 2027, 9040, 7894, 171, 979, 229, 4776, 1592, 2530, 9198, 5516, 1633, 4613, 2929, 1722, 9257, 43, 5121, 410, 1629, 587, };
const TfArray<1, int> tensor_dimension46 = { 1, { 48 } };
const TfArray<48, float> quant46_scale = { 48, { 0.00024143792688846588, 0.00032668933272361755, 0.00013487815158441663, 0.00020954001229256392, 0.00011819784413091838, 8.8677727035246789e-05, 0.00023322044580709189, 1.3282545296533499e-05, 0.00015558120503555983, 9.4129638455342501e-05, 7.2069000452756882e-05, 8.2403137639630586e-05, 4.9344045692123473e-05, 9.9491306173149496e-05, 0.00018479094433132559, 8.6609979916829616e-05, 7.52717096474953e-05, 0.00018434676167089492, 8.3997307228855789e-05, 9.8175427410751581e-05, 0.00015794813225511461, 0.00014827688573859632, 0.00015584200446028262, 0.00014444220869336277, 0.00021843143622390926, 0.00030620061443187296, 7.261579594342038e-05, 9.4825954874977469e-05, 7.6874319347552955e-05, 0.00012274112668819726, 6.0945236327825114e-05, 0.00029349577380344272, 0.00039775270852260292, 5.9364218031987548e-05, 0.00029340933542698622, 9.8222939413972199e-05, 0.00010052945435745642, 0.0001122893372667022, 0.00035254054819233716, 6.348759779939428e-05, 0.00021824952273163944, 0.00010955442121485248, 0.00010408677189843729, 7.7068085374776274e-05, 0.00016526393301319331, 0.00017315121658612043, 0.00029027438722550869, 5.6188087910413742e-05, } };
const TfArray<48, int> quant46_zero = { 48, { 0,0,0,0,0,0,0,0,0,0,0,0,0,0,0,0,0,0,0,0,0,0,0,0,0,0,0,0,0,0,0,0,0,0,0,0,0,0,0,0,0,0,0,0,0,0,0,0 } };
const TfLiteAffineQuantization quant46 = { (TfLiteFloatArray*)&quant46_scale, (TfLiteIntArray*)&quant46_zero, 0 };
const ALIGN(16) int8_t tensor_data47[1*3*3*48] = { 
  /* [0][0][][] */ -41,-4,-8,-3,-32,-61,0,-37,-2,-52,-4,31,-30,-9,5,-37,5,9,-16,32,10,-17,8,-37,-28,-25,10,9,19,-18,-34,8,6,-2,-6,27,3,11,15,32,-2,10,-4,12,13,127,-35,17, -32,23,-21,32,-16,-79,0,-62,31,-119,4,1,-63,-127,11,5,-115,-80,127,5,114,0,-3,4,98,-26,-12,-8,34,-71,26,-10,-20,1,-15,67,-63,-27,-61,-36,21,15,55,-46,-6,21,46,5, -24,0,49,16,-37,-11,18,-1,29,11,9,-32,-44,-11,-2,-3,18,-14,-27,-47,-1,4,-6,-21,-47,-23,27,-2,6,-1,3,-1,-5,5,-17,19,-5,-1,-8,27,-1,-8,11,10,-8,11,-23,-20, 
  /* [0][1][][] */ -9,26,8,-43,-117,12,16,-127,51,-53,-72,127,34,-7,45,-7,-13,127,24,127,94,67,-67,-52,-127,-39,-41,-127,-44,-71,-109,6,-26,119,-2,68,5,64,-6,127,127,-3,72,-89,-67,8,72,107, -32,-127,-53,-100,127,-3,127,41,127,-127,-53,-17,61,93,127,127,-45,0,-81,-30,42,5,47,127,5,127,-127,83,127,127,127,-127,127,13,-127,102,127,-127,-127,-44,-86,127,-127,127,-51,47,-127,7, -2,39,127,127,-27,-23,-11,-123,34,-104,127,-97,-127,-8,19,6,-36,-25,37,-98,127,94,-127,-67,-110,-59,4,17,-50,-78,3,3,-55,-127,-27,78,25,10,-46,75,-41,10,97,-23,127,39,42,-127, 
  /* [0][2][][] */ 25,-12,-31,-11,-7,-54,5,-34,-14,-50,-21,41,-36,-2,-15,-6,25,43,-2,1,-42,-36,-3,-29,33,-12,54,22,10,-38,-21,10,0,-4,53,3,-4,3,29,26,-5,9,-12,-12,9,77,-21,3, 127,34,-22,24,-45,-127,6,-29,34,21,20,-9,-82,20,4,5,-127,-119,-22,19,100,-127,-31,-3,90,-3,42,-15,38,-85,8,2,-69,5,93,127,-51,17,-44,-57,28,29,68,-18,7,74,-2,10, 32,1,19,17,-16,-6,2,-32,-15,65,-1,-51,-40,11,-15,-6,-3,8,-2,-24,-16,14,-22,0,-7,-28,86,-8,6,-22,7,8,-49,3,53,3,-13,-5,24,18,-7,-2,3,-6,-11,-13,-7,-6, 
};
const TfArray<4, int> tensor_dimension47 = { 4, { 1,3,3,48 } };
const TfArray<48, float> quant47_scale = { 48, { 0.0062685883603990078, 0.019808776676654816, 0.007680860348045826, 0.0058460310101509094, 0.01300298236310482, 0.007813681848347187, 0.0089914621785283089, 0.013697320595383644, 0.0052192187868058681, 0.0057859858497977257, 0.015212954021990299, 0.0096819596365094185, 0.0081817246973514557, 0.016821879893541336, 0.0053538870997726917, 0.013056104071438313, 0.007983749732375145, 0.0073387152515351772, 0.020807163789868355, 0.0091345682740211487, 0.0043141269125044346, 0.0052100978791713715, 0.0053472453728318214, 0.012335906736552715, 0.0056976689957082272, 0.010194600559771061, 0.016320478171110153, 0.019048769026994705, 0.011935794726014137, 0.011592577211558819, 0.01787259615957737, 0.0057858740910887718, 0.013556689023971558, 0.013695907779037952, 0.0082417838275432587, 0.0041662692092359066, 0.016368657350540161, 0.014109696261584759, 0.0057385750114917755, 0.014069480821490288, 0.0094007058069109917, 0.007818588986992836, 0.0076873432844877243, 0.034340903162956238, 0.01635427214205265, 0.0065151224844157696, 0.013764878734946251, 0.020323088392615318, } };
const TfArray<48, int> quant47_zero = { 48, { 0,0,0,0,0,0,0,0,0,0,0,0,0,0,0,0,0,0,0,0,0,0,0,0,0,0,0,0,0,0,0,0,0,0,0,0,0,0,0,0,0,0,0,0,0,0,0,0 } };
const TfLiteAffineQuantization quant47 = { (TfLiteFloatArray*)&quant47_scale, (TfLiteIntArray*)&quant47_zero, 3 };
const ALIGN(16) int32_t tensor_data48[48] = { 723, 4099, -7924, -6906, -2315, 10540, -7274, 24539, -5700, 14901, -1143, -534, 13732, 300, -3027, -2744, 17315, 3232, -1636, 143, -3276, 6559, 20270, 1170, 6556, 4030, 83, 2194, -7972, 8935, 427, 13944, 903, 10, -1682, -8239, -1603, 845, 5718, -3347, -6186, -1698, 5935, 303, -927, -3372, 4029, 272, };
const TfArray<1, int> tensor_dimension48 = { 1, { 48 } };
